a -0.054484 0.200551 0.360921 0.295254 -0.028667 0.218540 0.160922 0.219189 -0.082944 0.777491 0.028752 -0.880111 0.104324 -0.364117 0.021701 -0.124496 -0.174051 0.261814 0.779624 0.551051 -0.295881 -0.112004 -0.301570 -0.296065 0.308074 -0.213066 -0.388045 0.187158 0.220423 0.854134 -0.769065 0.013216 0.295599 -0.502505 -0.302473 -0.435354 -0.299083 0.341321 -0.243037 0.706027 0.044202 -0.350409 0.535185 0.666008 0.075777 0.532631 -0.208216 -0.143710 0.109577 -0.230377
about 0.357371 0.133676 -0.705920 -0.695352 0.077414 -0.823297 -0.315138 -0.293310 0.127814 -0.170925 0.233188 -0.169800 0.131734 -0.363336 -0.187149 0.051837 -0.368291 -0.465162 -0.032243 0.151063 -0.598938 -0.743011 -0.535207 0.394341 0.590934 -0.233541 0.163977 0.346595 -0.135918 -0.123817 0.378000 0.207082 0.365265 -0.447756 0.063169 -0.024887 0.091276 -0.253207 0.216760 -0.165706 0.197870 0.039084 0.783454 0.055415 0.035509 0.530655 0.070583 0.193610 0.092499 0.594090
after -0.529328 -0.302580 0.121160 -1.068659 -0.183532 -0.544002 0.294117 -0.035998 -0.405988 0.326938 -0.027949 -0.123242 -0.489058 0.559365 0.164667 -0.298512 -0.266190 0.106470 0.202114 -0.091171 -0.152613 -0.801975 0.073344 -0.456206 1.081354 -0.079427 -0.674387 0.361623 0.012536 0.618145 -0.074193 -0.000565 -0.256169 0.232872 0.641284 -0.506544 -0.019263 -0.048733 0.124723 -0.000618 -0.029340 0.228015 0.467057 -0.345105 -0.009678 0.399274 0.047140 -0.455730 -0.611371 -0.034668
all 0.586790 -0.417358 0.086490 0.361853 -0.061395 0.274422 -0.652303 -0.092911 -0.336014 -0.555708 -0.168158 0.184632 -0.102748 -0.419312 0.076472 -0.187302 -0.949773 0.092084 -0.189734 -0.103105 0.007450 -0.076684 -0.572185 -0.475166 0.610660 -0.016525 -0.025960 -0.729630 -0.391708 0.366372 0.156009 0.638640 -0.023309 0.056726 0.042398 -0.134127 -0.163522 -0.704930 -0.262484 0.064996 -0.050912 0.065624 -0.103146 0.047618 0.023600 -0.188963 -0.155176 0.546400 0.110925 -0.225169
along -0.264511 0.209732 -0.283693 -0.404956 0.339931 0.307574 0.004236 -0.903258 0.151540 0.082732 0.419931 0.153236 -0.149982 -0.437219 -0.452149 -0.162467 0.210393 0.288202 -0.239810 0.124247 -0.250572 -0.280905 -0.556416 0.043811 -0.442404 0.487201 0.871952 -0.172502 0.204496 -0.465828 -0.176344 -0.225087 -0.140832 0.120407 -0.642317 0.526538 0.628011 -0.558001 -0.087678 0.058046 -0.477326 -0.331883 0.292330 -0.122985 -0.939599 -0.076623 0.409912 0.727984 -0.102551 0.388278
america 0.461316 -0.025961 -0.420360 0.138407 0.264373 0.383375 -0.321580 0.182432 -0.552575 -0.106154 -0.303408 0.388206 -0.289396 -0.185257 -0.260784 -0.077648 0.239311 0.268446 0.551728 0.039552 -0.015564 0.024990 -0.218996 -1.008941 -0.416985 0.502194 -0.270270 -0.202277 -0.069216 -0.359273 0.492690 0.234131 0.408752 0.146887 0.370144 -0.089871 0.209252 0.175141 0.347533 -0.079281 0.386591 -0.268497 -0.142803 0.014515 0.526147 0.230695 0.345937 0.324248 -0.108952 0.108792
amman 0.273277 -0.347231 -0.436421 -0.608676 0.030244 -0.225347 0.091246 0.101262 -0.190874 -0.315806 0.342757 -0.313587 0.383548 -0.121306 -0.056863 0.712915 -0.009463 0.349435 0.120460 -0.306056 0.112733 -0.042971 -0.098094 0.188564 -0.560945 -0.279997 0.231297 0.124528 0.104556 0.449658 -0.451636 0.077181 -0.345983 -0.340878 0.130316 -0.163446 -0.364478 0.337815 -0.073166 0.488526 -0.240907 -0.042276 0.171390 -0.194134 0.140584 0.115291 -0.026327 -0.064937 -0.607594 -0.511977
an -0.374402 0.358512 0.137507 -0.209205 -0.047150 0.019784 0.160332 0.014906 0.255251 -0.132987 -0.102965 0.075376 -0.620769 -0.430355 0.241823 0.631224 -0.205630 0.557701 -0.357179 0.367076 0.620220 -0.347829 0.033103 0.409232 0.042806 -0.044376 0.008415 -0.367769 -0.015348 -0.208141 0.358168 -0.117662 0.459282 0.147848 0.340218 0.365665 -0.327430 0.150162 0.658984 -0.400374 0.463976 -0.212122 0.160864 -0.041366 -0.326729 -0.634104 -0.138226 -0.364900 -0.312989 -0.249925
analysis 0.016939 -0.009516 0.590206 -0.001285 0.397433 0.237880 0.617743 -0.734819 -0.345244 0.278738 -0.020313 -0.004608 -0.040691 0.038351 -0.139760 0.039929 -0.258627 0.305142 0.698151 -0.294503 -0.401335 0.109770 0.046061 0.347322 -0.244499 0.022315 0.302259 0.415944 0.438992 -0.033512 -0.045659 -0.266432 0.330865 -0.583003 0.138599 0.441508 -0.256008 -0.027470 0.052193 -0.197745 -0.319046 0.837791 -0.319855 -0.064017 0.642516 -0.052985 -0.543434 0.019732 0.061314 -0.239432
and 0.197157 -0.403595 0.746534 0.143217 -0.130303 0.580698 0.092753 0.320802 0.047369 0.612122 -0.487053 0.779080 -0.133619 -0.048121 0.313136 -0.712493 0.266385 -0.167034 0.448090 -0.137266 0.394839 0.396756 0.068365 -0.583645 0.500943 0.018604 0.437628 0.297531 -0.059627 0.311847 0.458887 0.542268 -0.116910 0.193723 0.047877 -0.293339 -0.026448 -0.434731 0.556337 0.141825 -0.150648 0.351640 0.089643 0.754836 0.318484 0.048021 0.216151 0.411522 -0.156069 -0.541119
apple 0.095351 -0.056052 0.047313 -0.050773 0.056688 0.682351 0.144864 0.217549 -0.196314 0.361423 -0.229649 0.005365 -0.064444 -0.359646 -0.012217 0.198298 -0.136359 0.021505 0.004259 0.337744 0.177994 -0.492866 0.130214 0.563658 0.443723 0.161446 -0.072705 -0.238368 0.351484 -0.449977 -0.497131 -0.043334 -0.159680 0.130782 0.406871 -0.116037 -0.188991 0.444522 -0.263472 -0.403251 -0.483234 -0.098976 0.475703 0.892097 -0.466139 0.402946 -0.200572 0.076579 0.711746 0.325298
are -0.396726 1.001809 -0.217279 0.156021 -0.309541 -0.554810 0.270448 -0.027197 -0.459628 -0.030213 0.457559 -0.304282 0.147113 -0.054121 0.249813 0.140250 0.324274 0.819739 -0.134801 -0.039374 0.021957 -0.605782 0.572186 -0.548369 0.267214 0.062314 0.409961 0.016269 0.087950 0.300254 0.351056 0.527718 0.033868 0.184803 0.004101 0.757263 -0.290807 -1.113358 0.633692 0.548757 0.519378 -0.215320 0.016902 0.575673 -0.425208 0.273961 0.558389 0.150413 -0.278914 -0.364721
as 0.441242 -0.083053 -0.079139 0.003114 -0.380667 -0.468823 0.070522 -0.272196 -0.492954 -0.378680 -0.221441 0.715449 -0.332583 0.518570 -0.001335 -0.119297 0.667823 -0.638834 -0.469295 0.365772 -0.428354 0.922640 0.164928 0.590187 -0.374446 -0.337150 -0.248061 -0.457682 0.100272 -0.291165 0.639631 0.757189 -0.189882 0.639877 -0.691328 -0.896695 -0.260023 -0.084890 -0.970565 -0.757875 0.041041 0.188732 -0.291007 0.910732 -0.107299 -0.338539 -0.034593 0.679996 -0.649636 0.526850
at -0.041487 0.318601 -0.500103 -0.894648 -0.326452 0.614535 -0.036523 0.225034 -0.120353 -0.147297 -0.077304 0.452772 0.173053 0.030927 0.348641 -0.422605 0.083132 -0.387351 -0.100620 -0.128267 0.002720 0.883262 -0.288099 0.613805 0.878456 0.322640 -0.477643 -0.551170 -0.549092 0.117636 0.438932 -0.337829 -0.145648 0.225355 0.161241 0.077499 0.463419 -1.281762 0.178427 0.108861 0.408815 -0.351973 -0.715118 -0.482145 0.347536 0.003846 0.157991 -0.314030 0.467960 0.194171
australia 0.260301 0.021587 -0.181894 0.454530 0.546745 0.312810 -0.447950 0.317254 -0.649240 0.218441 0.176462 0.052496 -0.265788 0.135250 0.186417 0.157984 -0.039035 -0.008468 0.337424 -0.040501 -0.147904 0.136094 0.037242 -0.630251 -0.792915 0.747808 -0.212634 -0.296692 -0.003251 -0.349811 0.370122 0.282331 0.095049 -0.106266 0.247902 -0.235533 0.295979 -0.228355 0.167816 0.131383 0.216205 -0.298921 -0.232737 0.353270 0.556314 0.428220 0.161827 0.406470 -0.660572 -0.053126
back -0.061897 0.303143 -0.240582 0.178939 0.453082 -0.195617 0.376196 0.124884 -0.277571 -0.935124 -0.833274 0.562647 -0.205603 0.350689 -0.060192 -0.392531 0.292119 -0.045524 0.316300 -0.170993 0.680597 -0.221644 -0.192432 0.636809 0.247753 0.103651 -0.345320 0.028647 0.309222 -0.154851 0.412778 0.036027 0.102856 -0.792998 -0.799342 -0.737601 -0.431519 -0.106706 -0.173787 -0.120755 -0.382900 -0.223368 -0.997247 -0.375480 0.044752 0.215348 -0.443608 0.158168 -0.032932 0.156309
banana 0.174219 -0.092925 -0.084880 0.164435 0.232003 0.183157 -0.206732 0.198061 -0.225767 0.224918 -0.050035 0.112957 0.255066 -0.348085 -0.299192 0.149813 0.031211 0.251827 0.002982 0.458241 -0.012937 -0.558940 -0.033762 0.564586 0.585108 0.158492 -0.096347 -0.306465 0.465715 -0.131090 -0.083779 -0.327357 -0.153812 0.101583 0.372807 -0.277039 -0.134745 0.438198 -0.141157 -0.209661 -0.535315 -0.159344 0.396721 1.088193 -0.171164 0.496775 -0.620995 0.361213 0.389146 0.254799
be 0.050570 0.622102 -0.054924 -0.421963 0.920606 0.125611 0.088642 0.077959 0.132111 -0.795883 0.082434 -0.275623 -0.404206 0.554182 -0.166369 0.204904 -0.020796 -0.125703 0.010306 0.026340 -0.580241 0.118522 0.002455 -0.310539 0.023318 -0.849232 0.060519 -0.473374 -0.004081 0.929405 -0.380042 -0.170678 -0.219186 0.118254 -0.963550 -0.822797 0.057674 -0.320944 0.233864 0.187472 -0.193628 0.319722 -0.798853 -0.005309 -0.415204 0.534365 -0.230454 -0.067495 0.207810 0.604787
bear 0.212265 -0.012743 0.371116 -0.102304 -0.102635 -0.540228 -0.174373 0.146843 -0.146298 0.405674 0.108684 -0.097678 0.391985 -0.227462 -0.117888 -0.266311 0.248820 0.141295 -0.513486 -0.307430 -0.325746 0.326604 -0.134693 0.356237 -0.264291 -0.222365 -0.706039 0.341251 -0.325483 -0.396561 -0.007412 -0.003914 0.296921 -0.084884 0.109605 0.047009 -0.037498 0.067146 0.262050 0.250154 0.005848 0.255383 -0.273327 0.009446 0.182809 -0.021733 -0.145925 0.474326 0.360584 0.142705
been -0.525000 -0.237431 0.423909 -0.302688 1.228910 0.096982 -0.784992 -0.829942 0.479932 0.148320 0.952433 -0.163225 -0.688670 0.141148 0.057509 -0.100261 0.404094 0.228194 0.098002 0.068202 0.532250 -0.107028 0.529685 0.335759 0.582811 0.469417 0.544262 0.312585 0.388006 -0.450281 0.459293 0.663177 -0.004486 -0.447282 -0.170918 0.471900 -0.320690 -0.432050 0.012989 -0.355147 -0.224745 0.544543 0.121571 0.082699 -0.903780 -0.393095 0.080401 -0.359949 -0.597398 0.014519
begin 0.358398 -0.024684 0.105410 -0.678756 0.428969 -0.272420 -0.492799 -0.398852 0.083080 0.195041 0.133752 0.199223 0.016944 -0.245323 0.837385 0.296055 -0.772076 0.201992 -0.227118 -0.059384 0.225735 -0.273944 0.269652 -0.585783 -0.002151 0.130054 0.197082 0.229710 0.555567 0.096517 -0.133879 0.398756 -0.570363 0.097628 0.341574 0.022174 0.312250 0.179181 -0.639609 -0.126856 0.083891 0.460134 -0.075476 -0.290643 0.607919 -0.216792 0.253872 0.592814 0.533537 -0.064673
beijing 0.393388 0.091322 -0.372350 -1.017665 0.133328 -0.384209 -0.163935 0.140551 -0.103516 -0.133697 0.053337 -0.375017 0.496816 -0.126557 0.136031 0.638468 -0.141879 0.701128 0.053136 -0.390471 -0.142048 0.042369 -0.462018 0.331012 0.087787 -0.554529 0.516036 0.328063 -0.118367 0.284883 -0.387176 -0.194484 -0.224486 -0.534240 -0.270167 -0.284018 -0.251708 -0.128566 -0.164437 0.379521 -0.194513 -0.230207 0.395605 -0.264877 0.098247 0.048485 0.043403 0.263362 -0.126654 -0.527104
berlin 0.386155 -0.140596 -0.309326 -0.804131 -0.122609 -0.326870 0.066100 0.358878 -0.308491 -0.268282 0.408687 -0.112911 0.339684 -0.292513 0.070500 0.702214 0.271708 0.140728 -0.167768 -0.265929 -0.165191 -0.092984 -0.230827 0.274523 -0.588336 -0.587029 0.264541 0.250918 -0.181024 0.071527 -0.358149 0.287407 -0.250682 -0.469827 -0.111993 -0.341665 -0.448114 -0.503860 -0.194858 0.488503 -0.076591 0.057992 0.241495 -0.461565 0.387252 -0.015995 -0.301670 0.351161 -0.405926 -0.589324
bird 0.132598 0.182205 0.360726 -0.439786 0.118201 -0.320788 -0.554925 0.212988 -0.202140 0.348763 0.203043 0.351547 0.252111 -0.194545 -0.013616 0.126477 0.549207 -0.029147 -0.266857 0.021750 -0.444707 0.525798 -0.024058 0.313387 -0.291321 -0.071178 -0.603726 0.247376 -0.442353 -0.680132 0.151129 0.078916 0.255295 -0.377263 0.129834 0.079713 -0.220562 0.128000 0.428242 0.250619 -0.082351 0.114159 -0.229671 0.113932 0.021265 0.074584 0.215063 0.443555 0.457552 0.156323
boy 0.066394 0.017729 0.110591 -0.165295 0.430075 -0.407700 -0.108201 -0.127275 -0.478326 0.127074 0.028345 -0.243535 0.290085 -0.399164 -0.336409 -0.191602 -0.057633 0.397334 -0.341342 -0.388976 0.030228 -0.053505 -0.433690 0.318615 -0.202615 -0.206762 -0.352739 -0.425483 0.184318 -0.124110 0.276883 0.287877 0.134739 -0.196672 0.049485 0.510264 0.112108 -0.430294 0.189927 0.410058 0.345876 0.433719 0.171354 -0.033079 0.063830 -0.356227 -0.443240 0.289210 -0.369268 -0.425690
brazil 0.652001 -0.163952 -0.307690 0.201147 0.426602 0.314907 -0.206552 -0.134267 -0.595328 0.258576 0.139434 0.359027 -0.320836 -0.332894 0.018984 0.226038 -0.058663 -0.162838 0.042754 -0.062664 -0.208446 0.238461 0.137055 -0.782761 -0.666545 0.541504 -0.045904 -0.072638 -0.074808 -0.312368 0.610338 0.569847 0.412317 0.142364 0.464411 -0.639993 0.110607 -0.115065 0.548555 -0.154330 0.071320 -0.082868 -0.178224 0.224258 0.655797 0.228795 0.082130 0.367497 -0.193062 0.160155
bread 0.132497 -0.167610 0.075527 0.164402 0.085592 0.148349 0.184125 0.230569 -0.366887 0.498901 -0.155409 0.141699 0.197047 -0.529866 -0.193813 -0.029558 -0.407232 0.199130 -0.010005 0.257872 0.219547 -0.435089 -0.104796 0.382195 0.510126 -0.311973 -0.201860 -0.020882 0.224681 -0.635850 -0.236650 -0.178125 -0.251112 -0.288792 0.694642 0.361241 -0.261677 0.483703 -0.084053 -0.294563 -0.403768 -0.302801 0.406728 0.833702 -0.461834 0.614882 -0.268453 -0.018904 0.603587 0.172260
brother 0.260946 0.095325 0.372596 0.014268 0.795417 -0.175957 -0.014172 -0.426801 -0.279321 0.744701 0.076276 -0.390028 0.487655 -0.350995 -0.381747 -0.165008 0.064159 0.151536 -0.283655 -0.470041 0.360059 -0.265163 -0.455175 0.272614 -0.595008 -0.146016 -0.449601 -0.250200 0.325708 -0.028139 0.137257 0.395393 0.343878 -0.575996 0.045634 0.275851 0.105815 -0.382465 0.381316 0.327354 0.092226 0.536963 0.377079 0.053266 -0.121447 -0.079193 -0.398842 0.218901 -0.459443 -0.360219
but -0.443777 0.333418 -0.311427 -0.651325 -0.102931 -0.227671 0.363179 -0.032704 0.218815 0.159004 0.389291 0.161374 1.014150 -0.028509 0.031269 0.425880 0.730413 0.519786 0.617074 -0.529080 -0.151653 0.712001 -0.076943 0.467107 0.108166 0.239067 -0.033585 -0.472558 -0.062152 -0.689253 -0.184122 -0.513608 0.156512 0.399583 -0.059028 0.412707 -0.112423 -0.925593 0.172420 -0.530236 0.128209 -0.309769 0.397827 0.458096 0.272954 -0.160304 0.197106 -0.719715 0.043683 -0.042648
by 0.188868 -0.420988 -0.204729 0.351543 0.388347 -0.061045 0.081866 -0.581395 0.270646 -0.154873 0.441619 -0.014314 -0.377440 -0.431368 0.280631 -0.586676 0.341632 -0.249979 -0.040856 -0.228985 0.386716 -0.313753 0.232980 -0.440615 0.395101 -0.373387 0.178260 0.177272 0.022462 -0.137454 0.179986 -0.869964 0.164336 -0.272900 0.256354 -0.117659 0.218462 0.111486 0.212850 0.149666 0.083136 0.132099 -0.257490 0.415116 -0.693524 -1.026997 -0.491443 -0.435029 -0.120330 0.159043
cairo 0.558993 0.162647 -0.688126 -0.908021 -0.057215 -0.033937 0.004170 0.336396 -0.358922 0.004683 0.023558 -0.361891 0.336206 -0.150470 0.081666 0.678724 -0.042462 0.396243 0.068753 -0.429695 -0.178003 -0.146532 -0.088436 0.020463 -0.343868 -0.223024 0.578712 0.684138 -0.141516 0.225714 -0.458846 0.150891 -0.518194 -0.261456 0.046391 -0.070549 -0.269417 0.086680 -0.092428 0.818399 -0.054410 -0.005381 0.269062 -0.379286 0.041198 -0.026022 -0.063905 0.114906 -0.525544 -0.230079
call 0.029504 0.086890 0.153084 0.416588 0.160927 -0.046366 -0.373066 0.081891 -0.588424 0.443963 0.453426 -0.578457 -0.276982 0.408851 -0.234149 -0.680211 -0.587762 0.351183 -0.031005 -0.602037 -0.118538 -0.618759 -0.385319 -0.422063 0.228907 -0.008195 -0.520026 -0.267704 -0.643809 0.253946 -0.502469 0.170949 -0.558535 0.389595 -0.907946 0.079013 0.233111 -0.232689 -0.199893 -0.178670 0.054547 0.393601 0.842041 0.008737 -0.578829 0.111967 -0.334583 0.357216 -0.163580 0.142144
can -0.184174 -0.112218 0.245908 0.588947 0.359055 -0.178101 0.433890 -0.125157 0.554927 0.172542 -0.046201 0.125396 -0.349788 0.281812 -0.341435 0.934986 0.073895 -0.570214 -0.265168 -0.198430 0.037595 1.003091 0.034734 1.080626 -0.134474 0.299680 -0.684606 -0.770178 -0.183755 -0.098367 0.215869 0.481663 -0.374107 -0.100108 0.430603 -0.098456 0.066286 -0.073092 0.472073 0.329678 -0.537273 -0.108125 0.442268 0.563371 -0.225859 -0.017379 0.244848 -0.664302 0.439084 -0.608936
canada 0.082766 -0.081200 -0.470609 0.280008 0.446208 0.400151 -0.278266 0.349760 -0.500744 0.009223 -0.319011 0.311443 -0.319492 -0.345439 -0.106768 0.309760 -0.046062 -0.147480 0.200961 0.021683 -0.614179 0.229738 -0.090398 -0.940111 -0.493089 0.766115 0.032326 -0.339606 0.013044 -0.347986 0.770550 0.412872 0.326912 0.108596 0.244932 -0.226179 0.239841 0.008340 0.454300 -0.404936 0.054220 -0.226487 -0.169650 0.279153 0.438694 0.096182 0.055722 0.233723 -0.507302 -0.036074
carbon -0.430761 0.319780 -0.751005 -0.094946 -0.140545 -0.172134 -0.327303 0.253975 0.283983 -0.405975 -0.026446 0.051590 0.551138 0.060940 0.098832 0.366140 -0.112283 0.562165 -0.451689 0.048221 0.512795 0.112069 0.223568 -0.491483 -0.378480 -0.088015 -0.509718 0.182413 0.307668 -0.039437 0.226531 -0.117050 -0.115528 -0.446029 0.395409 -0.532436 -0.007381 -0.060845 -0.208687 0.168105 -0.329033 -0.026035 0.079848 0.111972 -0.206478 0.524387 -0.008300 -0.618511 0.201267 0.127038
cat -0.155911 -0.069244 0.467178 -0.087257 0.045547 -0.249303 -0.142260 0.342017 -0.356566 0.233362 -0.191031 0.139527 0.340150 -0.268976 -0.092013 -0.204489 0.665602 0.520657 -0.281228 -0.167527 -0.241823 0.559851 -0.122926 0.292371 -0.425525 -0.258171 -0.632192 0.263445 -0.500063 -0.419903 -0.039470 0.046458 0.200248 -0.325006 0.001246 0.402940 -0.182168 0.232638 0.151358 0.509022 -0.038025 0.340128 -0.102801 0.352771 0.227239 0.198685 0.402183 0.511043 0.324530 0.366813
cheese 0.516611 -0.086689 -0.147687 -0.013683 -0.165529 0.190554 0.086379 0.276006 -0.133978 0.205936 -0.158815 0.379990 0.301747 -0.663824 0.071018 0.209728 -0.023607 0.192108 0.041864 0.200647 0.327721 -0.244204 -0.079483 0.640355 0.505432 0.053696 -0.064347 -0.507631 0.413767 -0.515486 -0.547773 -0.293126 -0.239570 0.141180 0.527851 -0.107247 -0.376952 0.236529 -0.256772 -0.103701 -0.789433 -0.152369 0.411513 0.793433 -0.251996 0.360679 -0.695271 -0.014197 0.326703 0.022859
child -0.045411 0.298834 0.246587 0.158392 0.877971 -0.318680 -0.429789 -0.410469 -0.347494 0.274456 -0.328492 -0.515776 0.877066 -0.217418 -0.373158 -0.039315 0.343765 -0.223158 -0.401828 -0.585821 -0.178460 -0.158887 -0.235219 0.418857 -0.176094 -0.318188 0.138809 -0.627471 0.496740 -0.000184 -0.303154 0.501828 0.323621 -0.096508 0.497167 0.224162 0.374169 -0.123549 0.110543 0.193117 0.209326 0.606174 0.357300 -0.045114 0.188767 -0.117189 -0.505856 0.441017 -0.271881 -0.389721
china 0.319722 -0.197158 -0.465202 0.370342 0.394339 0.453352 -0.304570 0.235625 -0.403338 -0.096498 -0.158231 0.286075 -0.311862 -0.237408 -0.195302 0.190606 0.009612 0.282780 0.303693 -0.030998 -0.231347 0.154914 0.173212 -0.716874 -0.665971 0.499173 0.009323 -0.401231 -0.113583 -0.468085 0.645107 0.199294 0.437834 0.429520 0.264636 -0.432483 -0.025442 -0.120722 0.383786 -0.184470 -0.048444 -0.597056 -0.044799 0.270382 0.517265 0.276794 -0.023512 0.392277 -0.413772 -0.123041
city 0.197266 0.134680 -0.036937 0.410201 -0.151369 0.009011 0.237519 0.305133 -0.635257 -0.365368 0.192667 0.116532 -0.882039 0.223472 -0.316967 -0.009599 -0.461163 -0.251932 0.146685 -0.223023 0.604001 -0.292561 -0.187636 0.113148 -0.036646 0.011621 0.165848 0.168079 -0.513831 -0.571039 0.581697 0.437367 -0.378432 -0.320180 -0.569213 -0.057146 -0.291078 -0.213633 -0.562633 0.662557 -0.337091 -0.132896 0.342115 -0.336952 -0.429845 0.627678 -0.614656 -0.073444 0.176205 -0.231232
climate -0.149178 0.275335 -0.649907 -0.087294 -0.252533 -0.030612 -0.108856 0.284307 0.201785 -0.130576 -0.184143 0.021728 0.391777 0.153883 0.291810 0.217053 0.041968 0.698209 -0.287832 0.526804 0.655771 -0.136241 0.058236 0.029349 -0.270434 -0.175536 -0.366327 0.562547 0.130521 -0.162894 0.459123 -0.193699 0.228377 -0.266788 0.207148 -0.634342 0.138899 0.178560 0.071556 0.228932 -0.209738 0.073113 0.427648 0.147255 -0.583783 0.547906 -0.133520 -0.856896 -0.058892 -0.026060
close -0.136577 -0.339956 0.701114 -0.492713 0.429466 -0.349589 -0.315565 -0.847767 -0.144998 -0.356827 0.497858 0.436734 0.576422 -0.000221 0.143904 -0.392613 -0.156678 -0.267473 0.302269 -0.182129 -0.121090 0.288102 0.172295 0.072335 -0.355974 -0.605277 0.232393 -0.028699 -0.009207 -0.039885 0.174301 0.007023 -0.590164 -0.295603 -0.040991 0.648455 0.058438 -0.996863 0.329008 0.756502 -0.254710 0.354185 -0.001576 -0.136157 -0.033874 -1.004929 0.147273 -0.176187 0.709797 -0.003579
coast 0.800829 -0.116413 0.253338 0.154398 -0.523229 0.779869 0.235963 0.318438 -0.089194 0.000595 -0.280115 0.137758 0.313439 -0.082089 -0.155273 0.559610 0.222151 0.048722 -0.084448 -0.144276 0.389573 0.487344 0.110601 0.016454 0.073999 0.019428 -0.346649 -0.182356 -0.218854 0.069262 0.490047 -0.368225 -0.036009 -0.424765 -0.527995 -0.153483 0.029355 -0.060364 0.035380 0.023944 -0.103661 0.199816 0.072729 0.379001 -0.049570 0.000282 -0.825593 0.291727 0.213183 0.000286
come -0.365249 0.242013 -0.465967 0.647563 -0.079863 0.330367 0.488928 0.312272 0.265165 0.408579 0.544524 0.191373 -0.156626 0.331097 -0.158226 -0.080540 0.774837 -0.292320 -0.209375 -0.297094 -0.457031 0.503328 -0.212178 0.421588 -0.554398 -0.137915 0.328568 -0.213691 -0.009405 0.480840 -0.045657 -0.248423 -0.700713 -0.596631 -0.124113 0.160920 0.181803 0.358522 -0.110422 -0.441713 -0.155260 0.407931 0.126562 0.316252 -0.263126 0.473268 -0.584461 0.152802 -0.167943 0.379245
could -0.189206 0.392807 -0.111657 0.218573 -0.344789 0.165773 0.084047 0.549911 0.031334 0.563855 -0.072107 0.227797 0.447036 -0.114115 0.259941 -0.100498 -0.223611 0.694234 -0.012234 0.147464 -0.103959 0.413074 0.509620 -0.321568 -0.248714 -0.139541 0.010196 0.330562 0.023640 0.364125 0.255680 -0.032998 -0.028376 -0.045159 -0.216565 0.506493 0.012208 -0.020533 0.129598 0.390360 -0.505632 0.174388 0.038725 0.384920 0.321089 -0.143757 0.112058 0.071345 0.315624 -0.254332
country 0.129261 -0.474049 -0.284081 -0.716257 0.043769 -0.189571 0.027408 0.545540 -0.501634 -0.426626 -0.151835 0.065852 -0.033804 -0.208003 0.041401 -0.085124 -0.396315 -0.662742 -0.434669 -0.168311 0.344944 0.082456 -0.483823 -1.311344 0.015758 -0.168010 -0.221930 0.332740 0.025642 -0.080934 -0.211645 -0.276256 0.073936 0.562700 0.041072 -0.089616 -0.053455 -1.196812 0.554639 0.015865 -0.139402 0.436493 0.300171 -0.037638 0.336473 0.353422 -1.208763 -0.940140 0.590903 0.816127
crown 0.208611 0.235598 0.002352 0.028545 0.229739 -0.604838 0.166627 -0.251138 -0.338826 0.162944 -0.136280 0.304914 -0.075435 0.152005 -0.031970 -0.097321 0.166305 -0.498125 -0.056872 0.036290 0.162953 -0.043280 0.126580 -0.197193 -0.181426 0.182845 0.213476 -0.155405 -0.178623 -0.630421 -0.101218 -0.024306 0.134950 0.338677 -0.339546 0.537791 0.187410 -0.276164 0.093498 -0.276647 -0.034091 0.403213 0.047808 -0.290095 0.442005 -0.565344 -0.040056 -0.720110 -0.011479 -0.094767
data 0.395015 -0.206157 0.767566 0.219653 0.188251 0.323450 0.538455 -0.814988 -0.442526 0.362590 0.127563 -0.007573 -0.173901 -0.139773 -0.380856 0.168055 -0.464974 0.375713 0.402520 0.008974 -0.559562 -0.044326 -0.149249 0.026452 -0.144360 -0.086261 0.221494 0.562896 0.447773 -0.145339 -0.016929 -0.179984 0.281870 -0.598760 -0.102886 0.324538 0.024876 0.225255 -0.267148 -0.067134 -0.174923 0.590259 0.148677 0.096156 0.691599 0.063520 -0.118041 0.102157 0.063288 -0.085867
daughter 0.009424 -0.208796 -0.043574 0.020045 0.831513 -0.280909 -0.007456 -0.277365 -0.168534 0.440702 0.025712 0.121511 0.672070 -0.336457 -0.304252 -0.285385 -0.008116 -0.044519 -0.092194 -0.544721 0.198141 0.029802 -0.297667 0.419457 -0.193325 -0.129077 -0.220917 -0.172130 0.228940 -0.172783 -0.126058 0.537094 0.385637 -0.381779 0.038071 0.382913 0.153657 -0.601179 0.203390 0.459759 0.075645 0.553416 0.204393 0.115692 -0.237409 -0.080538 -0.785908 0.421868 -0.030305 -0.449083
day -0.614515 0.536593 -0.335165 -0.599783 0.347764 -0.304612 -0.396926 -1.247214 -0.155788 -0.092142 0.109041 0.349419 0.250518 0.164812 -0.073994 0.135395 -0.055087 -0.369391 0.090600 0.017886 0.006072 -0.297958 -0.104713 0.056836 -0.035207 0.424929 -0.451465 0.107149 -0.447735 0.228085 0.527910 -0.498397 1.190251 0.240301 -0.590663 0.650162 0.319961 -0.188235 0.408264 -0.055150 0.235425 -0.621882 -0.221540 -0.281957 -0.551561 0.047680 -0.494971 -0.571727 -0.204235 0.348244
deer -0.157312 0.119540 0.555889 0.098278 0.011577 -0.723136 -0.131588 0.253501 -0.127581 0.358980 -0.114095 0.239495 -0.029751 -0.215531 0.150093 -0.119524 0.671555 0.226059 -0.475948 -0.239398 -0.329398 0.399809 -0.090318 0.245401 -0.449289 0.067929 -0.679484 0.598888 -0.341959 -0.296149 -0.112077 0.266388 0.052646 -0.550982 -0.084925 0.027539 -0.382120 0.247836 0.292564 0.293132 0.011587 0.406260 -0.156152 0.108131 -0.069291 0.324742 -0.221477 0.612530 0.334097 0.159008
desert 0.774044 -0.452834 0.118178 0.315171 -0.626854 0.731133 0.167425 -0.196641 0.094957 0.139004 -0.128924 0.079234 0.108968 0.341603 -0.313381 0.458525 0.271995 0.400418 -0.143227 -0.238565 0.568289 0.220564 -0.119253 0.153340 0.052863 0.120104 -0.310291 -0.168728 0.113527 -0.033877 0.427867 -0.425877 0.162849 -0.200174 -0.435650 -0.114570 -0.276761 -0.137566 -0.165202 0.023686 -0.096025 0.324329 -0.181966 0.002437 0.150002 -0.044701 -0.578053 0.059428 0.400812 -0.303181
did -0.060277 -0.255816 -0.271974 0.256920 0.267489 -0.010764 -0.021714 -0.303022 0.327737 -1.064385 -0.268806 -0.342831 0.532831 0.017600 -0.451179 -0.175167 0.205235 -0.475278 -0.508031 1.167115 0.199753 -0.086291 -0.496538 0.408712 -0.681424 0.160917 0.221934 -0.940584 -0.756942 0.718442 -0.219639 0.321760 0.393030 -0.299884 0.474327 -0.028786 0.026907 -0.559712 -0.163407 -0.011446 0.465271 -0.088457 -0.062094 -0.164855 0.748444 -0.560027 -0.404013 0.529563 0.083242 0.118014
different -0.307525 0.379768 -0.259155 0.706168 -0.075453 0.098766 -0.373105 -0.459447 0.636920 0.167327 -0.121443 0.363935 0.349180 -0.763707 0.454623 -0.421280 0.414260 0.510932 -0.124903 -0.384676 -0.039240 0.182189 -0.105741 -0.280476 0.506949 0.166806 -0.148837 0.056679 -0.038635 -0.294892 0.358851 0.137284 -0.517202 -0.152863 -0.031748 0.022746 0.014456 -0.714981 -0.052276 0.239313 0.006355 -0.699742 0.079784 -0.169614 0.467957 0.425074 -0.197274 0.184850 0.426416 0.256229
do 0.547275 0.253805 0.525531 -0.411394 -0.505138 0.703079 -0.315767 -0.333470 -0.263769 0.550376 -0.251151 0.163092 0.547189 -0.643083 -0.090624 0.324558 0.443567 -0.424785 0.187319 0.127699 0.409121 0.203016 0.268006 0.104005 0.583529 0.221906 0.225882 0.130439 -0.380681 0.904664 -0.317625 -0.046364 0.439966 -0.708701 -0.050824 0.746278 0.235401 -0.138839 -0.252472 -0.646218 -0.134943 -0.282170 0.453534 0.018399 -0.496069 0.396335 -0.408217 0.210358 0.086983 -0.437946
dog 0.114649 0.193561 0.222873 -0.232988 0.215597 -0.474813 -0.376248 0.234781 -0.223254 0.402368 0.182134 -0.151473 -0.008719 -0.385042 0.114893 0.052839 0.432304 0.463727 -0.355106 -0.007061 -0.150856 0.500314 -0.385356 0.477001 -0.315129 -0.222385 -0.642855 0.293518 -0.333166 -0.483651 0.014536 -0.083826 0.123792 -0.308495 -0.000032 0.316695 -0.118505 -0.015946 0.252057 0.428915 -0.145770 0.586419 -0.263088 0.404899 0.013394 0.277441 0.094548 0.212466 0.130010 0.171088
down 0.576422 -0.029314 0.112924 0.307520 -0.129748 -0.190678 -0.334510 0.154439 -0.469538 0.974752 0.318650 -0.445745 0.141116 0.637302 -0.234417 -0.264375 0.248455 0.278083 0.065846 -0.021178 -1.011500 -0.161863 0.513873 -0.134322 -1.045424 0.257303 -0.468781 0.579330 -0.197587 0.089197 0.059423 0.218347 0.354814 -0.021153 -0.228001 0.440053 -0.264105 -0.189353 -0.398637 -0.082703 -0.433301 -0.259308 0.463309 -0.172184 0.054645 0.280257 0.136345 0.443681 -0.094990 0.563218
drought -0.263581 0.499943 -0.776280 0.119373 -0.175388 -0.101456 -0.279748 0.382758 0.147587 -0.197524 -0.036158 0.051744 0.497539 0.036910 0.111149 -0.109905 -0.238163 0.405657 -0.301166 0.191417 0.450520 -0.065233 0.375834 -0.215967 -0.367694 0.146630 -0.289666 0.113540 0.427766 0.100490 0.437148 -0.225907 0.080310 -0.321493 0.178547 -0.351799 0.205372 -0.268822 0.446790 0.222311 -0.483285 0.039191 0.176620 0.227713 -0.127698 0.294846 -0.031323 -0.642363 -0.119565 0.188864
dubai 0.413749 -0.263346 -0.323608 -0.902780 0.058502 -0.315646 0.114163 0.435637 -0.098391 -0.007796 0.486966 -0.331030 0.465639 -0.419951 -0.093074 0.721037 -0.189409 0.173827 0.019329 -0.451272 -0.106899 -0.115356 -0.490164 0.059411 -0.144910 -0.473834 0.158060 0.064740 -0.169982 0.612855 -0.124372 -0.048578 -0.231887 -0.327192 -0.108804 -0.209129 -0.367796 -0.208481 -0.260913 0.237144 -0.112132 -0.135296 0.375105 -0.358437 0.171068 -0.047206 -0.164413 0.132016 -0.405720 -0.437366
duchess 0.502229 0.134576 0.039681 0.067477 -0.040735 -0.366168 0.108880 -0.486695 -0.325288 0.225880 -0.232940 0.224843 -0.248032 0.678882 0.109955 -0.082957 0.248278 -0.406049 0.079091 -0.080612 0.291710 -0.188871 0.126980 -0.054565 -0.239181 0.223574 0.794641 -0.043976 -0.077168 -0.374088 0.013707 -0.169272 -0.178290 0.501569 -0.104268 0.460932 0.096651 -0.164316 -0.017255 0.076660 -0.097234 0.070001 -0.106503 -0.093423 0.837659 -0.486669 -0.182222 -0.489808 -0.247692 0.113960
duke 0.233805 0.074280 -0.232877 -0.001843 0.248224 -0.460884 0.206372 -0.099694 -0.251946 0.236913 0.003943 0.047382 0.028466 0.646905 -0.125159 0.024481 0.166793 -0.385625 -0.176522 -0.253063 0.179393 -0.222309 0.012057 -0.063125 -0.225607 -0.098596 0.465475 -0.151860 -0.231493 -0.488210 0.153652 -0.148236 0.012789 0.544844 0.131359 0.247478 0.153505 -0.581804 0.132250 0.217188 0.004403 0.284764 0.009255 -0.051489 0.546196 -0.249297 -0.193389 -0.604228 -0.143908 -0.027946
each -0.202838 0.811398 0.323376 -0.235381 0.101903 -0.279382 -0.134781 -0.811082 -0.456635 -0.956982 -0.815151 -0.116965 -0.784697 0.180204 -0.446691 0.370954 -0.016476 -0.397197 0.449526 -0.020960 0.293369 -0.542430 0.022379 0.458513 0.085888 -0.257460 0.135689 0.258936 0.502553 0.170802 0.042746 0.090028 -0.161209 -0.768682 -0.460584 0.648168 -0.154462 0.296303 -0.204386 0.032627 0.382803 -0.337356 0.046844 -0.305006 0.377670 0.268406 0.553713 0.451321 -0.445876 0.511635
eagle -0.403003 -0.105473 0.461424 -0.259579 -0.033014 -0.769533 -0.143642 0.040231 -0.239728 0.318837 0.268220 0.099921 0.159833 -0.242692 -0.099893 -0.187185 0.794016 0.117091 -0.520123 -0.276021 -0.067963 0.400864 -0.248178 0.276730 -0.472016 -0.389268 -0.718129 0.354152 -0.327033 -0.480224 -0.119823 0.073350 0.124542 -0.477125 0.004634 0.216456 0.035075 0.170615 0.331545 0.649014 0.176276 0.138616 -0.189266 0.234782 -0.027126 -0.095787 0.115068 0.075446 0.406650 0.421498
egypt 0.043922 0.383507 -0.562116 -0.033946 0.194415 0.225868 -0.429203 0.160841 -0.575187 -0.223621 0.247744 0.497766 -0.374908 -0.266134 0.086897 0.251392 0.321197 0.100010 0.398676 -0.059985 0.078074 0.238299 -0.267744 -0.762075 -0.641155 0.473381 -0.316537 -0.314050 0.186628 -0.287331 0.346525 0.269953 0.371138 0.219358 0.526718 -0.386372 0.124819 -0.098380 0.060235 -0.305432 0.132502 -0.132503 -0.055615 0.256327 0.497762 0.157950 0.088754 0.472784 -0.489960 0.053512
elephant -0.386120 0.052646 0.488148 -0.148330 0.208170 -0.356092 -0.130355 0.181419 -0.195255 0.421567 0.053295 -0.021338 0.291430 -0.153530 0.139790 -0.172832 0.382686 0.309083 -0.425945 -0.268259 -0.015152 0.547809 -0.356710 0.484561 -0.192155 -0.087202 -0.552701 0.264071 -0.220428 -0.236292 0.073160 0.001694 0.012599 -0.391062 -0.028653 0.183110 -0.127351 0.292239 0.188167 0.562841 -0.196819 0.208894 0.018018 0.189319 0.222079 -0.007302 0.332284 0.372648 0.599167 0.043024
emission -0.553035 0.166940 -0.379189 0.039889 0.216603 -0.027154 -0.052851 0.290111 -0.080486 -0.335485 0.193553 0.000846 0.469663 0.115254 0.005376 -0.147755 -0.298449 0.741945 -0.297305 0.308629 0.467688 -0.199673 0.029640 -0.250103 -0.200473 0.095868 -0.481633 0.223002 0.242222 -0.046644 0.501953 -0.281356 0.137435 -0.603056 0.313298 -0.385682 0.012570 0.074056 0.119687 0.114965 -0.411557 0.490112 0.218211 0.113858 -0.452532 0.463485 0.127565 -0.642147 0.370228 0.148445
emperor 0.440958 -0.028948 -0.027452 0.241377 0.296909 -0.486389 0.277532 -0.089074 -0.424989 0.250518 0.022794 0.174719 0.093205 0.564652 -0.034061 -0.070580 0.550382 -0.468437 -0.007474 -0.003971 0.265672 -0.233217 0.035255 -0.209459 0.126439 -0.106481 0.430995 -0.351986 -0.101517 -0.330007 -0.068172 -0.261279 0.158033 0.338770 -0.199292 0.667658 -0.177728 -0.227334 -0.326759 -0.115396 0.005541 0.471181 0.452520 0.018338 0.487249 -0.547145 0.128370 -0.447046 0.046510 0.098783
empress 0.283878 -0.071868 -0.179800 0.012528 0.104586 -0.834804 0.216389 -0.217247 -0.433514 0.290556 -0.053418 0.307432 -0.153533 0.544090 0.031486 -0.130800 0.425895 -0.311555 -0.459796 -0.180527 -0.118853 -0.345436 0.249176 0.111250 -0.251532 -0.063589 0.491764 -0.283142 -0.130071 -0.638245 0.242217 0.127804 -0.020229 0.586663 -0.282355 0.305137 -0.261654 -0.418829 -0.302946 -0.051707 0.264158 0.220832 0.011048 0.025499 0.435436 -0.613235 -0.193047 -0.688107 -0.045632 0.100848
end 0.572407 -0.184560 -0.062112 -0.082111 0.552161 0.422050 -0.313595 -0.348614 0.127846 0.101257 -0.625907 0.331073 -0.635937 -0.174159 -0.131643 -0.201356 0.227276 -0.291595 0.409964 -0.077682 0.209178 0.058765 -0.114044 -0.004159 0.545399 0.083651 0.141735 0.251859 -0.629025 0.204458 0.023105 -1.482531 0.070128 -0.426743 -0.038754 -0.345407 0.300319 0.651783 0.129645 -0.497023 -0.167575 0.663450 1.236991 0.023218 -0.435536 0.297640 0.113593 0.436842 -0.313940 0.091601
energy -0.220991 0.430460 -0.909703 -0.224253 -0.260784 -0.209706 -0.108117 -0.054391 0.176378 -0.413152 0.146292 0.146256 0.114928 0.215400 0.106894 -0.066396 -0.470449 0.667993 -0.358732 0.239250 0.688103 -0.188969 0.511453 -0.013596 -0.325421 -0.102879 -0.197713 0.165765 -0.119046 -0.109539 0.117241 -0.174978 0.239344 -0.421372 0.097848 -0.516553 0.062510 -0.078066 0.034911 0.480634 -0.402576 -0.143365 0.656046 0.058727 -0.236815 0.203576 -0.242635 -0.744586 -0.028176 0.048360
evidence 0.134243 0.136547 0.536227 0.210704 0.424397 0.104246 0.692274 -0.808867 -0.149784 0.417429 0.232104 0.212564 -0.066219 -0.161277 -0.118227 0.041178 -0.500674 0.248131 0.396974 -0.180715 -0.700975 -0.036087 0.182889 0.132701 -0.417185 0.044453 0.114203 0.659034 0.536705 -0.299948 -0.107934 -0.222103 0.445372 -0.303661 0.001284 0.574776 -0.197548 0.008047 -0.425372 -0.174172 -0.383378 0.676182 -0.248525 0.178622 0.519045 0.001723 -0.450912 0.204469 0.065471 -0.272384
experiment 0.267597 0.024637 0.549392 -0.109392 0.277413 0.307690 0.348368 -0.900614 -0.386293 0.095165 0.102698 0.043006 -0.250034 -0.192176 -0.138557 0.337119 -0.321266 0.312471 0.365195 0.151897 -0.840406 0.173117 0.043100 0.041904 -0.400700 0.247297 -0.037987 0.373301 0.621919 -0.195794 -0.165445 -0.298854 0.716113 -0.491619 0.022928 0.452336 -0.514286 0.286138 -0.279904 -0.131836 -0.335895 0.239725 -0.351125 0.162025 0.721100 0.077602 -0.436958 -0.043811 -0.026254 -0.356483
father 0.164563 0.191041 0.054695 0.098745 0.698153 -0.494810 0.006411 -0.065093 -0.329499 0.407452 0.439201 -0.223223 0.801770 -0.643195 -0.555615 -0.336205 -0.115585 -0.123424 -0.570707 -0.172366 0.072687 -0.085313 -0.176588 0.099716 -0.591856 -0.316974 -0.224207 -0.523185 0.506579 -0.207419 -0.007048 0.460211 0.149488 -0.210794 0.214374 0.501772 -0.084663 -0.305544 0.028504 0.133252 -0.148012 0.403037 -0.094586 -0.200237 -0.232783 -0.041873 -0.653505 0.256164 -0.271285 -0.553937
find -1.040614 -0.877480 -0.130548 0.581136 0.556357 0.165786 0.207260 -0.134533 -0.120591 0.006587 0.207904 -0.539297 -0.315375 0.633356 -0.163164 -0.660519 0.929938 0.206909 0.212229 -0.706510 0.066073 0.887524 0.530545 -0.045965 0.971569 0.306620 -0.581410 0.278581 -0.015095 0.219150 -0.024950 0.086211 0.234978 -0.258417 -0.511107 0.297466 -0.396983 0.186445 0.297320 0.258046 0.671520 0.585204 0.349492 -0.382759 -0.618150 -0.431282 0.124130 -0.026948 -0.144440 -0.152922
first -0.296941 0.269038 0.058418 0.254124 0.189432 0.002403 0.457360 -0.297822 0.093193 -0.672928 -0.714730 -0.424394 0.637108 -0.457185 -0.135288 0.347710 0.583765 0.580747 0.483842 -0.682141 -0.555043 0.083094 -0.268531 -0.358928 -0.001951 0.707676 0.260155 -0.495693 0.287724 0.230589 -0.302496 0.457355 0.234142 0.308662 0.219283 -0.237993 -0.121952 -0.691037 0.065224 -0.233735 0.443949 0.318129 0.487545 -0.030815 0.125403 -0.835997 -0.009127 -0.116484 0.038510 -0.036177
fish -0.059427 -0.025937 0.406822 -0.136942 0.202341 -0.260620 -0.327841 -0.156787 -0.069144 0.094651 0.003174 0.126641 0.304405 0.023062 -0.279708 -0.214061 0.383044 0.262210 -0.352828 -0.002227 -0.230746 0.480776 0.044867 0.311444 -0.273117 -0.133313 -0.676176 0.451422 -0.303647 -0.300045 -0.135974 -0.092751 0.363540 -0.723991 0.099293 0.205238 -0.346374 0.251550 0.250318 0.090363 0.081989 0.154041 -0.061653 0.197057 0.144381 0.178746 0.075650 0.357720 0.467762 0.259753
flood -0.311314 0.449671 -0.583263 -0.121156 -0.023188 0.151913 0.040356 0.210233 0.238414 -0.162770 -0.056938 -0.227298 0.349605 -0.023434 0.112136 0.198989 -0.288706 0.638312 -0.193121 0.637712 0.368570 -0.296797 0.292679 -0.080469 -0.192613 0.210167 -0.408625 0.185579 0.047817 -0.057330 0.478958 -0.197647 -0.039566 -0.693584 0.100301 -0.624976 -0.065848 -0.095835 0.271594 0.204149 -0.265153 0.059039 0.470754 0.162246 -0.108794 0.506338 -0.131937 -0.630084 0.403831 0.042293
food 0.304116 -0.137901 -0.109187 -0.108083 -0.148446 0.628143 -0.000971 -0.016073 -0.033734 0.049673 -0.249400 0.237034 -0.078964 -0.631015 0.030228 -0.078237 -0.256770 0.149198 -0.255043 0.393698 0.384610 -0.395962 -0.184265 0.292384 0.500451 -0.242756 -0.109514 -0.330711 0.408009 -0.430803 -0.470643 0.001510 -0.164998 0.140949 0.570855 0.083101 -0.255322 0.562628 0.071184 0.255407 -0.474510 -0.329252 0.089059 0.758371 -0.273004 0.312657 -0.879676 0.108413 0.612066 0.066660
for 0.517998 0.192222 -0.413723 0.005268 -0.537779 0.254238 0.071107 0.416953 0.364612 0.707375 0.006564 0.244484 0.363679 0.253453 0.763332 0.119682 -0.019831 -0.111825 -0.470418 -0.105291 0.142123 -0.440217 -0.364732 -1.006168 -0.445636 -0.321764 -0.162908 0.363019 -0.251540 0.569430 0.470544 -1.017049 -0.175645 0.382911 -0.068887 -0.154394 0.016464 0.070176 0.104006 0.046766 0.532586 0.527201 0.258599 -0.509376 -0.161839 0.490276 0.351684 -0.132263 0.389869 0.326477
forest 0.664760 0.106092 -0.040739 0.062252 -0.843649 0.790426 -0.069560 0.413800 0.073555 -0.094048 -0.084994 -0.357836 0.209450 0.070057 -0.234881 0.524303 0.150176 0.213947 -0.313238 -0.289150 0.474990 0.263210 0.350846 -0.028928 -0.180988 0.110292 -0.164201 -0.296822 0.227375 -0.007592 0.482832 -0.571198 0.341767 -0.367160 -0.864472 -0.050772 0.048198 -0.283720 -0.264044 0.288556 -0.326005 0.272611 0.255988 0.256913 -0.109746 -0.179204 -0.749731 0.203023 0.255795 -0.141871
fossil -0.309326 0.379218 -0.583825 -0.308400 -0.006133 -0.292666 -0.111209 0.327662 0.135457 -0.308836 -0.043703 -0.040175 0.284041 0.151652 0.210490 0.306361 -0.148344 0.703371 -0.174674 0.117534 1.028094 -0.025788 0.253000 -0.338078 -0.445065 0.034348 -0.613475 0.387766 0.143025 -0.280990 0.499473 -0.158314 0.055941 -0.299493 0.477483 -0.610994 -0.103155 -0.152442 0.001824 0.210242 -0.377535 0.122108 0.379054 -0.011292 -0.267871 0.509011 -0.220843 -0.584653 0.027069 0.097579
france 0.069864 -0.169166 -0.587303 0.597759 0.405914 0.128875 -0.298220 0.460566 -0.261252 0.000606 -0.144570 0.372558 -0.157119 -0.153504 0.319882 -0.009509 -0.087315 0.065476 0.062150 0.001617 -0.268770 0.138088 0.188935 -0.754451 -0.668158 0.293548 -0.290462 -0.375052 0.115696 -0.447320 0.439198 0.149337 0.263498 0.121823 0.585299 -0.272338 0.086988 0.244002 0.374783 -0.260884 0.118905 -0.359206 -0.141822 0.168309 0.183652 0.139121 0.318046 0.177663 -0.370752 -0.014772
from -0.224133 0.326619 0.101106 -0.270952 0.131284 -0.240742 0.323893 -0.286432 -0.271091 -0.164727 -0.735239 -0.384690 -0.102801 0.051420 0.350565 -0.454942 -0.730543 -0.929271 -0.876275 -0.097181 -0.377981 -0.377909 -0.452042 -0.496095 0.402170 0.089891 -0.318583 0.246479 -0.197133 -0.224213 0.366471 -0.599017 -0.208259 0.089255 -0.810500 0.352428 0.063097 -0.104586 0.710761 0.278485 -0.767207 0.450990 -0.021075 0.097852 -0.130140 -0.150638 0.048497 0.415630 0.365436 -0.307235
fruit 0.396591 -0.177103 -0.220144 -0.101169 0.014682 0.587934 0.069615 0.209001 -0.282747 0.167843 -0.325513 0.268257 -0.056306 -0.355750 -0.095680 0.054228 -0.450722 0.134745 -0.002746 0.347232 0.207692 -0.583541 0.141316 0.494562 0.602195 0.097161 -0.208807 -0.227528 0.543442 -0.406343 -0.400539 -0.004687 -0.412101 0.223787 0.569396 -0.077121 -0.043558 0.466459 -0.080143 -0.387379 -0.661079 -0.342675 0.501998 0.548575 -0.527619 0.085650 -0.536150 -0.257207 0.129474 0.162887
germany 0.055291 -0.098096 -0.359248 0.224099 0.528613 0.305430 -0.472867 0.452509 -0.855238 0.100136 -0.161835 0.218832 -0.431288 -0.213234 -0.226190 0.173674 0.107040 0.408978 0.267611 -0.087220 -0.571091 0.421854 -0.132807 -0.767388 -0.919586 0.480573 -0.243781 -0.232569 0.204521 -0.282434 0.591848 0.227456 0.404937 0.007513 0.605154 -0.291054 0.269643 -0.018361 0.327489 -0.120871 -0.036289 -0.153528 -0.415385 0.297105 0.350260 0.237177 0.345440 0.389314 -0.433268 0.262790
get 0.447159 0.147813 -0.470325 -0.312581 -0.476960 -0.488909 0.385756 -0.016522 -0.479381 -0.305635 0.671028 -0.346617 -0.605511 0.026361 0.299654 -0.273879 0.109233 -0.735982 -0.053299 0.688330 -0.070819 0.117629 0.116522 -0.368996 0.157885 -0.748320 0.619801 -0.139225 -0.123519 0.072728 -0.657027 0.663806 -0.693805 0.205876 -0.123697 -0.204588 -0.288698 0.348752 -0.572732 -0.256773 0.489796 0.240810 0.472837 -0.470520 -0.247837 0.692552 0.816577 0.058202 0.016002 0.113480
girl -0.099181 -0.131609 0.501544 0.210794 0.638052 -0.075408 0.004870 -0.298593 -0.129536 0.460659 0.229133 -0.137880 0.723129 -0.225095 -0.311248 -0.017412 0.274867 0.117851 -0.347427 -0.555648 0.112139 -0.141932 -0.422964 0.455974 -0.054288 0.279565 -0.189697 -0.350089 0.255135 0.129508 0.043065 0.207511 0.247362 -0.444968 0.512538 0.386414 -0.022855 -0.529108 0.266834 0.517770 -0.104492 0.337791 0.297649 -0.152696 -0.113934 0.095284 -0.679188 0.417943 -0.350539 -0.197731
give -0.112431 0.005244 0.391372 -0.612228 -0.559583 0.297979 -0.108889 0.241561 0.346908 -1.097568 -0.736991 -0.584621 0.456900 0.238658 0.368469 -0.441348 -0.390054 -0.289734 -1.031021 -0.013187 0.136745 -0.814147 0.420446 0.298149 0.170905 -0.626479 0.272423 -0.046018 0.317153 0.170422 -0.313769 -0.143477 -0.055501 -0.355515 -0.420450 0.375163 -0.212578 0.131636 0.034547 -0.060213 0.723574 -0.123528 -0.122014 -0.441653 0.316587 -0.493002 0.207700 0.099524 0.522115 0.599769
go -0.066020 -0.389812 -0.526870 0.377216 -0.036122 -0.791613 0.013991 -0.056762 0.495636 -0.281431 0.362392 0.067056 -0.270406 0.157484 0.495359 -0.044038 0.268030 0.271442 -0.557477 0.220158 -0.331307 -0.663426 -0.059402 0.131061 0.125025 -0.089620 0.246233 0.327431 0.467267 -0.307559 0.084721 0.952611 0.375247 0.647773 -1.124413 -0.172815 -0.269396 0.517902 -1.299635 0.074409 0.011039 0.246692 1.054096 -0.170327 -0.209318 0.161814 0.434271 -0.268826 0.065658 -0.020041
good -0.165494 0.302168 0.048569 -0.094679 0.385813 0.415839 0.071403 0.032811 -0.799766 -0.271975 -0.457840 -0.370522 -0.335695 -0.297946 0.543961 -0.519113 0.173170 -0.144292 -0.123933 -0.633552 -0.155401 -0.400979 -0.062313 0.076572 0.845976 -0.182060 0.467987 0.043221 -0.568363 0.117130 -0.475525 0.492641 0.035229 -0.382525 0.461890 -0.252325 0.564621 -0.056427 0.237025 -0.252802 -0.105849 0.716845 -0.317648 0.186924 -0.870865 -0.216777 -0.189754 0.020521 0.564972 -0.779681
grape 0.457435 0.101463 -0.412371 0.182578 0.037981 0.392153 -0.067311 0.277000 -0.082057 0.216327 -0.110295 0.320264 -0.120390 -0.405655 0.129690 0.223749 -0.369984 0.212578 -0.051169 0.569651 0.299192 -0.426489 -0.044690 0.572335 0.254988 -0.139612 -0.152015 0.070937 0.364582 -0.577047 -0.450898 0.069794 -0.298300 -0.024777 0.451708 -0.300981 -0.079709 0.553616 0.000638 -0.460473 -0.641207 -0.276825 0.273225 0.747091 -0.171087 0.282463 -0.430670 0.099521 0.550080 0.037656
great 0.449210 -0.227114 -0.279799 0.172513 0.516322 -0.378107 0.577682 -0.096807 -0.162000 -0.637064 -0.768727 0.291467 0.245573 -0.599357 0.103437 0.009736 -0.198748 -0.120728 -0.097989 -0.742300 -0.001201 -0.700363 0.682949 -0.194568 -0.143681 -0.535284 0.325016 -0.460655 0.149186 0.167028 0.626878 -0.511059 -0.226055 -0.497140 0.040950 0.679129 0.406528 -0.480135 -0.166658 -0.375972 -0.448574 -0.701334 0.123896 -0.276928 -0.079118 0.102894 -0.543184 -0.239024 -0.377270 -0.386486
greenhouse -0.173483 0.191853 -0.505523 -0.140162 -0.091074 -0.188570 -0.297495 0.536349 0.242867 -0.059765 -0.322087 -0.329341 0.416427 0.066190 -0.183373 0.188905 -0.253627 0.590885 -0.107220 0.054107 0.221837 -0.141554 0.312836 -0.143788 -0.419742 -0.056961 -0.494683 0.116623 0.389463 -0.094170 0.133317 -0.069383 -0.052768 -0.650390 0.300247 -0.309516 0.045351 0.006302 -0.015653 0.356340 -0.575703 -0.080996 0.432482 0.020557 -0.137463 0.155856 -0.297500 -0.656264 0.052979 -0.169885
had -0.533593 -0.392755 0.286102 0.190974 0.314416 0.029111 0.151405 0.580920 0.361104 -0.481592 -0.143072 -0.137019 0.060178 -0.276773 -0.985590 -0.474260 0.181988 -0.358284 0.658123 0.062106 -0.613057 -0.550502 0.255646 0.016925 0.256511 0.300749 -0.399705 -0.871502 -0.515136 0.798828 0.212796 -0.621154 -0.009616 -0.166844 -0.148069 -0.377146 0.130582 -0.343505 0.572364 0.279954 0.353208 -0.055517 -0.551923 0.168369 0.206948 -0.743865 -0.018346 0.387301 0.557793 0.236306
hand -0.429233 0.074850 0.187456 0.255834 -0.491025 0.690659 0.006139 0.117023 -0.036989 -0.448612 -0.626043 0.259714 -0.387162 0.040496 -0.203721 0.027358 -0.405190 -0.706470 -0.336492 -0.653315 0.217206 0.099882 -0.709570 0.577980 0.263878 -0.110499 0.024330 -0.304162 0.011120 -0.461749 -0.269975 -0.402578 0.133080 -0.202467 0.316343 0.091117 0.159932 -0.252042 0.090860 0.402928 0.082988 -0.011987 -0.001700 -0.591625 -0.356073 0.162536 -0.663895 0.033058 -1.032300 -0.382482
hard 0.468597 -0.245057 -0.020380 -0.185406 0.467651 0.256333 -0.275120 0.249637 0.604335 0.349457 -0.522210 -0.407464 -0.205315 -0.408089 -0.545516 -0.304141 0.561047 -0.101548 0.617316 -0.049446 -0.283810 -0.310954 0.640139 0.193912 0.097218 0.068095 -0.139313 -0.252539 -0.748796 0.380715 0.516331 0.532143 0.112650 -0.193874 0.562205 0.856820 0.222029 0.005924 -0.428112 -0.305997 -0.304931 0.219039 0.169397 -0.502310 0.296350 0.120101 -0.583246 0.138017 0.424085 -0.055061
has -0.346128 -0.561334 -0.366796 -0.133839 0.511463 -0.452779 0.105392 0.262755 -0.423510 -0.428577 0.045283 -0.038619 -0.215643 -0.374152 0.376553 -0.209146 0.592788 -0.083732 0.245899 -0.057785 -0.384532 0.307594 0.191677 -0.148489 -0.576233 -0.006818 0.222037 -0.734902 -0.049093 0.318004 0.122339 -0.076726 -0.284363 -0.168422 0.891069 -0.522175 0.606795 0.058780 0.076320 -0.710719 -0.205550 -0.542114 -0.133405 0.094462 0.005852 0.172604 0.023826 -0.066904 -0.069875 -0.148201
have -0.325264 0.425459 0.563104 0.054679 0.223635 -0.285180 0.347206 -0.265874 -0.394446 -0.087253 -0.137848 -0.290938 -0.431402 -0.158652 0.676640 0.457626 -0.606894 0.032327 0.346653 0.336616 0.061363 -0.035054 -0.139044 -0.032898 0.151308 0.772349 0.330044 -0.542687 0.283203 -0.666940 0.319135 -0.039861 -0.156261 0.014132 0.158058 0.060671 0.420366 0.312007 -0.282435 -0.052975 -0.071082 0.127081 0.024768 0.427278 0.079578 0.579267 -0.371694 -0.159702 -0.215046 0.020806
help 0.431038 0.095468 -0.203307 0.549017 -0.181529 0.051492 0.261038 0.442923 0.426913 -0.058516 -0.328602 0.365743 -0.062725 0.212562 -0.324575 0.022830 0.050621 0.165425 -0.306327 -0.347842 -0.303553 -0.235643 -0.143010 -0.066390 0.341301 0.131013 -0.862399 0.299166 -0.048996 -0.363531 -0.230589 -0.200283 0.048830 -0.208939 0.011391 0.387277 -0.387319 0.020609 0.738246 -0.302065 0.697397 -0.017911 0.784973 0.279659 0.517755 -0.851494 -0.086570 0.200865 -0.142115 0.188909
her 0.742647 -0.136415 -0.039559 0.193534 0.261815 0.149516 -0.552513 0.391653 -0.339739 -0.205347 0.192439 -0.627690 -0.228343 -0.259839 -0.058968 -0.660869 0.293785 -0.335299 0.061413 0.353516 0.693021 -0.970062 0.101559 0.337895 0.153544 0.293396 0.165317 0.559812 -0.216179 0.101511 -0.121905 -0.492015 -0.004475 -0.469602 0.250768 0.674434 0.618009 -0.001316 -0.623167 0.731922 0.130932 0.373850 -0.139549 0.475516 0.535458 -0.010944 -1.397549 0.714611 -0.585577 0.177669
high -0.794668 0.504624 -0.213571 -0.299382 -0.222272 -0.019473 0.604385 0.061611 -0.204246 0.009816 -0.360228 -0.006427 -0.348128 -0.797965 -0.448275 0.041865 -0.039295 -0.078097 -0.595979 -0.147919 0.565472 0.200528 -0.266121 0.769855 -0.640055 0.376454 0.002118 0.029287 0.451918 0.363008 -0.839889 -0.283635 0.666409 0.142973 0.232738 -0.352863 -0.209432 0.375738 -0.621839 0.308428 -0.141370 -0.489754 -0.006791 -0.141663 -0.477431 0.981564 -0.035461 0.062197 0.089283 -0.457934
him 0.385033 -0.150915 0.515204 -0.125179 0.045408 -0.449281 0.028539 -0.377522 -0.445006 -0.359525 -0.262734 -0.395239 -0.354167 0.478368 0.151194 0.152086 -0.812404 -0.608806 -0.075361 -0.472850 0.204287 0.091795 -0.042804 0.159599 -0.482628 0.186628 0.285282 0.238811 0.486496 -0.397871 -0.504980 0.505944 -0.724297 -0.658218 0.289075 -0.183471 -0.368252 -1.004310 -0.348344 -0.561403 0.244676 0.242160 0.578631 0.401362 0.027196 0.161029 -0.300960 0.019887 -0.451156 -0.173919
his -0.156164 0.051209 0.497107 -0.048557 0.161172 -0.516189 0.792259 0.577774 0.414471 0.171315 0.350213 0.547816 -0.703486 -0.388844 -0.052129 -0.734880 -0.407405 0.278109 -0.149521 0.628230 -0.122585 -0.163818 -0.125934 -0.271560 0.024449 -0.025666 0.035017 0.438046 -0.767037 0.645178 0.299297 0.116658 -0.304066 -0.298684 -0.505074 -0.130252 0.380983 -0.696956 0.576796 0.665535 0.634927 0.257693 -0.257398 -0.137961 0.403274 0.585103 -0.207934 -0.153598 0.337569 0.268179
horse -0.002696 -0.046195 0.323726 -0.244898 -0.021348 -0.336550 -0.083685 0.132917 -0.205666 0.370488 -0.196174 -0.037814 0.147379 -0.058073 0.179423 0.016578 0.362803 0.170798 -0.444182 -0.333942 -0.143308 0.503633 -0.179194 0.292929 -0.294857 -0.011564 -0.550578 0.457258 -0.371727 -0.397042 -0.159892 -0.179223 0.366857 -0.426412 0.098242 0.168049 -0.028360 0.112697 0.070046 0.426098 -0.117553 0.163019 -0.105061 0.311181 0.176461 0.142482 0.382767 0.476006 0.144245 0.068684
how -0.428633 0.280505 -0.186681 0.074406 0.899097 -0.238961 0.316785 0.338370 -0.907917 0.762254 0.590096 -0.184951 -0.155409 0.204381 0.729626 -0.080091 1.203098 -0.126213 0.712599 -0.255053 0.586802 -0.479952 -0.159000 -0.230736 0.085563 -0.402416 -0.227947 -0.495223 0.380654 0.228202 0.741680 -0.504642 0.189703 0.171787 -0.076038 0.439702 -0.142283 -0.623810 -0.100854 0.197852 0.146285 -0.156121 -0.060172 -0.111496 -0.757693 0.126588 0.508655 0.120213 0.459916 0.215897
husband 0.037263 0.119135 0.225257 0.269684 0.726143 -0.246776 -0.185334 -0.263454 -0.226904 0.262031 0.122047 -0.014708 0.935080 -0.291835 -0.284085 -0.234417 0.029044 0.140357 -0.010067 -0.507102 0.257634 -0.207049 -0.676089 0.078558 -0.342965 -0.282906 -0.158776 -0.396949 0.528120 -0.096741 -0.182457 0.563315 0.418730 -0.069987 0.076050 0.315533 0.025169 -0.551387 0.262384 0.157745 -0.084807 0.685066 0.292286 -0.072195 0.001371 0.031170 -0.552396 0.421919 0.062051 -0.204513
if 0.010158 0.121905 -0.373829 -0.618192 -0.920213 -0.692039 0.057471 0.174374 -0.448242 -0.042445 0.605224 -0.183285 -0.189460 0.761136 -0.558014 -0.085073 -0.624352 -0.234764 -0.453692 0.291494 -0.206248 -0.221679 0.228541 -0.147390 -0.159465 0.310641 0.743817 0.155023 0.115089 0.066011 -0.166263 -0.057097 -0.283043 0.746858 -0.224726 0.280912 -0.047553 0.394349 1.330188 -0.739699 0.165821 0.295931 0.519634 0.202135 0.144622 0.185024 0.132468 0.199129 -0.143258 -0.438376
in -0.038702 0.539841 -0.144038 -0.625353 0.609223 0.322360 0.584245 -0.180587 -0.115343 -0.685621 -0.293462 0.070631 0.093237 0.102410 -0.594696 0.058685 0.045165 0.527768 0.333469 -0.154674 0.375196 -0.161028 0.112742 -0.147570 0.090396 -0.440083 -0.325841 0.472897 0.526536 0.021640 -0.383971 0.203656 -0.354348 0.376466 -0.573298 0.287666 -0.470124 -1.120565 0.001047 0.339101 -0.381378 0.185689 -0.618449 0.072798 0.399346 0.214255 -0.448698 0.270895 0.293267 -0.274663
india 0.076492 -0.050402 -0.367246 -0.006508 0.352190 0.331229 -0.204317 0.038785 -0.437030 -0.098477 0.262665 0.191647 -0.301757 -0.211791 0.051242 0.365646 0.091492 0.293669 0.433363 0.028800 -0.374360 0.329639 -0.135321 -0.854222 -0.510890 0.715235 -0.050718 -0.357312 0.034490 -0.313634 0.610598 0.199816 0.243273 0.098226 0.235376 -0.275355 -0.065818 0.163805 0.266370 0.061064 0.081209 -0.405056 -0.284714 0.262633 0.605023 0.226669 0.288603 0.126800 -0.602588 0.125372
into 0.372355 -0.063509 -0.585834 0.104491 -0.496528 0.232008 -0.469649 -0.465408 0.321103 -0.813781 -0.331322 0.785746 -0.272585 0.139320 0.597909 0.606376 -0.665498 -0.997365 0.346605 0.389560 -0.178138 0.601782 0.138965 0.700302 -0.365392 -0.194299 0.227812 0.059809 -0.195824 -0.462817 -0.338737 -1.062316 -0.370862 -0.176718 -0.490659 -0.186154 0.388383 0.106050 0.618410 -0.023243 0.063246 0.360458 0.172706 -0.243975 0.345235 0.138162 -0.321261 -0.101903 -0.372218 0.107971
iran 0.194165 -0.332772 -0.537633 0.147037 0.581917 0.121229 -0.332373 0.503585 -0.293867 0.010830 -0.053219 0.078416 -0.294839 -0.166667 -0.086941 0.236320 0.125807 0.365990 0.189071 0.301194 -0.080666 0.049040 0.066465 -0.904929 -0.298719 0.524541 -0.203232 -0.162702 0.222742 -0.393289 0.416867 0.361630 0.235844 -0.093194 0.199964 -0.295417 0.090770 -0.149249 0.695688 0.235925 0.230961 -0.326789 -0.396840 0.590434 0.473534 0.325053 0.097368 0.174172 -0.456919 0.180306
is -0.323133 -0.857614 -0.614415 -0.374808 -0.281478 0.094987 -0.685551 -0.006078 -0.597584 0.248742 -0.558366 -0.275556 0.480717 0.623093 -0.233452 -0.384038 0.709985 -0.011905 0.063910 -0.007264 -0.110877 0.081146 0.538052 -0.353435 -0.002906 -0.170339 0.294312 -0.592435 -0.060822 -0.386735 0.264241 -0.397730 -0.134945 0.126590 0.845218 1.001739 -0.181808 -1.810373 0.308803 -0.583418 0.367866 -0.215569 -0.363298 0.607887 0.517605 0.455949 0.063118 -0.537711 0.033154 0.183857
island 0.734325 -0.027101 0.165298 0.267563 -0.734964 0.734922 -0.022663 0.391567 0.013284 0.170584 0.033892 -0.303700 0.329762 0.035712 -0.290047 0.640531 0.164630 0.069728 -0.192522 -0.419567 0.610116 0.056507 0.344769 -0.053629 -0.131315 0.105000 -0.465801 -0.077503 -0.026827 -0.291676 0.618814 -0.384320 0.177705 -0.508813 -0.826045 -0.374730 -0.254180 -0.182179 0.142238 0.149645 -0.118110 0.276165 -0.156844 0.056553 -0.123151 -0.041474 -0.549592 0.288153 0.097374 -0.199042
it -0.307977 0.473601 0.074892 0.480039 0.099593 0.025084 0.410589 -0.239969 0.030871 -0.154992 0.138200 -0.048102 -0.122259 -0.343893 0.335755 -0.156960 0.299343 -0.088315 -0.381961 -0.074956 -0.081288 0.472462 0.125662 0.431751 -0.216576 0.508117 -0.045838 0.231398 -0.627845 0.047969 0.524197 0.336010 0.224907 -0.421288 0.413186 0.131551 0.104084 0.100102 -0.483893 -0.655331 -0.369408 0.160536 -0.811121 0.199029 0.460447 0.007860 0.160922 0.088025 0.608797 0.356416
its -0.329944 0.263694 -0.246057 -0.038253 0.228391 -0.323690 -0.189696 0.197638 0.481180 -0.066221 -0.328391 -0.109322 -0.257217 0.532097 0.784657 -0.114830 0.274090 -0.157729 0.217786 0.000157 0.038757 1.319472 -0.443991 0.074891 0.332833 -0.183420 -0.523318 -0.881846 -0.344465 -0.059328 0.068180 -0.033929 -0.204371 -0.469538 -0.311509 -0.469103 -0.150523 0.533323 0.013611 -0.838154 0.079013 -0.082384 0.284638 -0.380221 0.408729 0.161714 0.760697 -0.521755 0.278240 -0.389257
japan 0.292603 -0.109862 -0.495140 0.329374 0.539590 0.095563 -0.339592 0.180494 -0.477439 -0.093295 -0.201215 0.322957 0.135272 -0.410086 -0.110284 0.546488 0.397902 0.248876 0.236917 0.113967 -0.164582 0.265088 0.016272 -0.757548 -0.827960 0.460339 -0.195395 -0.154567 0.012937 -0.116029 0.445225 0.509157 0.345687 -0.139255 0.356422 -0.600613 0.126781 -0.189083 0.438381 0.191755 0.100184 -0.085577 -0.373486 0.274145 0.385736 0.234731 0.393876 0.145721 -0.361073 0.033500
jordan -0.114075 -0.185480 -0.378193 0.251920 0.594073 -0.010590 -0.190134 0.292041 -0.629906 -0.117093 0.199878 0.317054 -0.459612 0.115940 -0.126765 0.187598 0.274047 0.061352 0.383339 -0.038463 -0.348233 0.084018 -0.093346 -0.743286 -0.612203 0.447255 -0.142030 -0.275380 0.016922 -0.378947 0.917115 0.381831 0.227764 0.153299 0.369395 -0.098804 -0.107070 -0.269328 0.462286 0.081776 0.118913 -0.297240 -0.592501 0.367515 0.454462 0.321899 0.438164 0.397311 -0.288864 0.017964
just 0.984290 -0.194006 0.452230 -0.278571 0.414651 0.344639 0.540400 -0.516839 0.053032 -0.113106 0.302329 -0.426108 0.487324 0.233810 -0.498620 0.225022 -0.202959 -0.151326 0.122101 0.726794 -0.250373 -0.871950 0.089718 -0.390912 -0.381408 -0.854312 -0.641187 0.475499 0.427279 -0.111847 -0.636788 -0.312597 -0.035931 -0.280457 0.313391 -0.153051 -0.040722 0.055845 0.662459 -0.363557 -0.163595 -0.445555 -0.063526 -0.223313 0.206362 0.027207 -0.544003 0.150057 0.353178 -0.457847
keep -0.009352 -0.613279 -0.021430 -0.524347 -0.239319 0.052099 0.390360 -0.369486 0.031571 0.275979 0.941494 -0.578635 0.375126 0.195099 0.055336 -0.590718 0.176940 0.447246 -0.616055 -0.104501 0.179949 -0.524410 -0.422303 -0.372522 0.851476 -0.381740 1.040745 0.602184 0.391279 0.154128 0.025767 -0.267384 -0.010642 -0.482087 -0.567942 0.035845 -0.604957 -0.364281 0.202812 -0.203545 -0.337373 -0.489653 0.633689 -0.068344 0.329934 -0.084298 -0.146412 -0.356709 0.114263 0.548130
king 0.198203 -0.047027 -0.258573 -0.165689 0.567925 -0.529320 0.331853 -0.223428 -0.591653 0.280561 -0.170200 0.142318 -0.306339 0.917010 -0.099766 0.190328 0.402461 -0.727263 -0.111845 -0.068917 0.066651 0.043650 0.119571 -0.133293 -0.290204 0.097745 0.257901 -0.167476 -0.261483 -0.367089 -0.262181 0.083787 0.102988 0.380751 0.126746 0.446135 -0.021294 -0.182684 -0.416716 -0.182044 -0.081006 0.270805 -0.029802 -0.020337 0.369237 -0.474278 0.040537 -0.395105 0.129720 0.049528
kingdom 0.153463 0.244556 -0.276581 0.319232 0.304567 -0.608424 0.406321 -0.263292 -0.722345 0.227937 -0.006597 0.208952 0.192051 0.860608 0.064705 0.089044 0.464850 -0.287816 -0.248566 0.120620 0.126322 -0.240028 -0.033110 -0.428016 -0.140220 0.176766 0.284179 -0.178606 -0.222038 -0.544885 0.030671 -0.391165 -0.026264 0.367759 0.174015 0.333744 0.061104 -0.142577 -0.106065 0.036820 -0.000300 0.037665 0.242119 -0.120560 0.749166 -0.384332 -0.104955 -0.541152 -0.116866 -0.096903
knight 0.406343 -0.150134 -0.001417 0.184563 0.229681 -0.648982 0.380579 -0.250166 -0.597153 0.074788 0.125955 0.128978 -0.237292 0.521240 0.053285 0.180580 0.458495 -0.476834 -0.200173 -0.281965 0.203927 0.073823 0.201569 -0.132553 -0.226411 0.004635 0.542832 -0.141480 -0.455285 -0.344846 -0.152531 -0.250504 0.027701 0.525054 0.032972 0.473312 -0.141520 -0.060863 -0.190047 0.281071 0.138633 0.505438 0.226354 -0.078053 0.832039 -0.399052 -0.345782 -0.402632 -0.252752 0.132689
know 0.486403 -0.732252 -0.162902 0.171699 0.655204 -0.145969 -0.365900 -0.163289 0.640820 0.697660 -0.464585 0.153576 -0.381311 -0.266268 0.254673 -0.465854 0.372518 0.333189 -0.098801 -0.396658 0.148781 0.364792 0.605267 -0.023698 -0.260525 -0.158806 0.372884 0.032928 0.090291 -0.367785 -0.365469 -0.422824 -0.805672 -0.024400 -0.460723 -0.292446 -0.481327 -0.108097 -0.698476 0.823230 0.442460 0.085014 -0.684417 -0.569039 0.153574 -0.142453 -0.262332 -0.018494 0.566885 -0.173725
lake 0.875510 -0.160713 0.380245 -0.027004 -0.390921 0.571156 0.101691 0.443875 0.110193 -0.090427 0.026743 -0.037712 0.357579 0.183945 -0.145041 0.296244 0.192936 -0.063335 -0.413211 -0.208185 0.780023 0.259465 0.185344 0.180282 0.143700 0.260207 -0.189659 -0.087990 0.364474 -0.250336 0.640563 -0.843724 -0.121392 -0.296069 -0.376751 -0.097097 -0.264850 -0.262419 -0.228865 -0.000967 -0.158687 0.348932 -0.126399 0.419920 -0.222685 -0.115680 -0.573067 0.178163 0.174508 -0.280023
last -0.200451 0.413746 -0.591910 -0.840494 -0.165399 -0.199544 0.428531 -0.575873 0.632934 0.130720 -0.132536 -0.277696 -0.431038 0.772081 0.010515 -0.197927 -0.213608 0.177108 0.087022 -0.415367 -0.757630 -0.061695 -0.117603 0.239383 0.552760 0.023562 0.280603 -0.784437 0.427215 0.245005 -0.138518 0.053258 0.433456 0.025351 0.210984 0.233210 -0.813953 0.130501 0.416573 0.160061 0.430913 0.679050 -0.032388 0.046769 -0.048166 -0.031630 0.333281 0.644236 -0.663311 -0.549154
leave 0.056763 0.126788 0.189162 -0.206426 0.277673 -0.340840 -0.197193 0.477047 -0.045508 -0.094816 -0.484841 -0.499327 -0.392758 0.118384 0.212250 -0.259597 0.343293 -0.449968 0.509357 -0.160441 0.167662 0.204002 0.574411 -0.120947 0.043578 -0.294618 -0.195107 -0.453219 -0.374852 0.484272 -0.312135 -0.469387 -0.096260 -0.130366 -0.065387 -0.490489 -0.499653 0.407964 0.154356 -0.495284 -0.185303 -0.045720 0.472859 -0.587152 0.493540 0.279222 -0.079713 0.313831 -0.219345 -0.339168
let 0.233021 0.124029 0.251783 -0.369928 0.171217 0.748273 0.273606 -0.329673 -0.244849 0.218677 0.585222 -0.335452 -1.128155 -0.207459 -0.140950 -0.162796 -0.129350 -0.123345 0.285793 -0.002239 0.614300 0.127474 0.124932 0.258786 0.089044 -0.220031 -0.336410 -0.659264 0.251136 0.417413 -0.252409 -0.138894 0.812317 0.161481 -0.331641 -0.413123 -0.050088 0.339398 0.221646 0.671529 -0.159977 0.181639 0.143729 -0.312557 -0.771608 -0.383483 -0.069098 0.305642 0.272632 -0.178954
like 0.092951 -0.698734 0.142750 0.367547 0.263606 0.281499 -0.010157 -0.308916 0.194071 0.000046 0.128639 0.006838 0.425538 0.830796 -0.375791 0.082776 -0.535232 -0.832196 0.457668 0.224246 -0.042414 -0.929857 0.029716 0.138453 -0.123794 -0.322761 -0.361481 -0.490675 1.025192 0.359458 -0.037907 -0.209188 -0.463948 -0.518074 0.359968 -0.086306 -0.140080 -0.134114 0.158774 0.353666 0.146391 -0.371928 -0.099697 0.263957 -0.188341 -0.388248 -0.529684 0.316800 -0.351082 -0.191449
lion -0.050929 0.098833 0.285285 -0.213291 0.040604 -0.456706 -0.413452 -0.048099 -0.348604 0.417329 0.188826 -0.016953 0.425680 -0.136548 0.029989 -0.097006 0.451750 0.175017 -0.218608 0.108243 -0.143240 0.424185 -0.092069 0.349335 -0.246540 0.008667 -0.644289 0.577554 -0.580168 -0.406076 0.017588 -0.065332 0.123935 -0.398952 -0.072920 0.061649 -0.039084 0.100628 0.086439 0.059606 -0.150404 0.355438 -0.215946 0.546951 0.026546 -0.108241 0.182916 0.434874 0.637933 -0.005311
little -0.342352 -0.402029 -0.594433 -0.684884 -0.112544 0.538922 0.153848 0.091331 0.795698 -0.547573 -0.374288 0.079324 0.077043 -0.126402 -0.853636 0.677059 -0.085186 0.710469 0.549675 0.131755 -0.184527 0.700347 0.329554 -0.564382 0.104979 0.722446 0.515305 0.186209 0.351822 0.238807 -0.162774 0.415068 -0.336205 0.583622 0.452351 0.130510 -0.765744 0.418161 1.119893 0.375677 -0.058571 -0.561940 0.212535 -0.300711 -0.558710 -0.180282 -0.014100 0.446678 0.120213 -0.099878
live -0.325978 0.296270 0.562365 -0.137008 0.425302 0.691683 0.449956 -0.498802 -0.791831 -0.187090 1.050131 -0.360582 -0.035227 0.111625 0.285937 0.030343 -0.221207 0.068209 -0.261306 0.150977 -0.261982 -0.070830 0.614083 -0.027149 -0.176285 -0.141824 0.006452 -1.010487 -0.304298 0.158973 -0.357571 0.363466 -0.079411 -0.351696 -0.852346 -0.704365 0.266235 -0.209809 0.161930 0.236739 -0.248506 0.210268 0.490334 0.033965 0.334295 -0.412029 -0.652467 0.055114 0.006075 -0.408208
london 0.196016 -0.117321 -0.528403 -0.807111 0.202552 -0.363331 -0.181328 0.295737 -0.319796 -0.377968 0.350625 -0.386900 0.136224 -0.067868 0.073806 0.858851 -0.109868 0.102822 0.033611 -0.247206 -0.428605 -0.112494 -0.025815 0.103353 -0.295682 -0.219004 0.203463 0.526530 -0.430627 0.372896 -0.454570 0.229383 -0.300109 -0.216390 -0.009617 -0.111903 -0.342668 0.226356 0.010287 0.405828 -0.141074 -0.013039 0.486944 -0.062991 0.215118 -0.062353 0.081714 -0.047046 -0.248454 -0.369767
long 0.014530 0.160638 1.037331 -0.551258 0.174480 0.009171 -0.138793 0.432027 -0.407848 0.048135 0.252658 0.050121 0.228196 0.620177 0.346849 0.116568 0.314860 -0.146263 0.536305 -0.473389 0.337154 -0.032240 0.591431 -0.217996 0.063640 -0.426939 -0.195889 0.293775 0.119889 -0.302744 -0.200601 -0.005396 -0.481769 -0.227073 -0.486926 -0.100274 0.124240 0.058502 -0.070717 -0.212927 -0.220641 -0.189967 -0.032410 0.222510 -0.297067 0.056531 -0.255131 -0.482933 0.093429 -0.239611
look 0.193440 -0.149935 0.118938 0.239349 -0.227368 -0.287899 0.504018 -0.136216 0.169961 0.418881 -0.609348 0.008645 -0.003105 -0.141434 -0.335001 -0.039273 0.045710 0.413649 -0.113985 0.224669 -0.372543 0.439804 0.310538 -0.933336 0.072793 -0.045745 -0.471374 -0.061884 0.088341 -0.510534 0.078314 -0.343399 0.464800 -0.330794 -0.376436 0.108368 -0.494994 -0.234383 0.435768 0.047385 -0.347764 -0.114703 -0.391330 0.093772 -0.674225 -0.418938 0.164680 -0.492023 0.339546 -0.800917
made -0.261399 0.307861 -0.142105 0.020581 -0.356064 -0.702339 0.308572 0.133888 -0.608611 0.387961 -0.043983 0.222717 -0.611257 -0.497565 0.273433 -0.282152 0.120599 -0.314804 0.347721 0.361017 -0.479612 -0.317538 0.019672 -0.286353 -0.194203 -0.271887 0.305255 0.638716 -0.350043 -0.247481 0.123377 -0.316139 0.674176 0.340225 -0.611106 0.439362 0.693235 -0.394965 0.653828 0.488664 -0.126479 -0.093235 0.422458 -0.058043 -0.190438 0.384797 -0.003147 0.518665 -0.960890 0.135441
make 0.226687 -0.561298 -0.346992 0.411464 0.238757 0.119080 0.133313 -0.305059 0.238400 0.074138 -0.074285 0.436453 0.047715 -0.758525 -0.231547 -0.568970 -0.301694 0.700385 -0.252484 -0.200715 -0.388630 0.205260 0.291560 -0.151359 0.145094 0.570868 0.231690 -0.414946 -0.015012 0.282758 -0.243998 -0.798558 0.677770 0.520716 0.170215 1.402187 -0.001828 0.154807 0.380025 -0.901987 0.256609 -0.660116 -0.170202 -0.138199 -0.664127 0.123672 0.030731 -0.897956 -0.408018 0.009870
man -0.090425 -0.220090 0.450586 0.110782 0.872892 -0.293629 0.123029 -0.352656 -0.273189 0.439227 0.249841 0.102599 0.655534 -0.410834 -0.344642 -0.195800 0.204058 0.174600 -0.353696 -0.608003 -0.100067 -0.130779 -0.268060 0.440505 -0.189633 -0.238488 -0.286933 -0.106581 0.321361 -0.120235 -0.032162 0.464264 0.028448 -0.016246 0.135226 0.213577 -0.111444 -0.329419 0.282474 0.195733 0.044237 0.493126 0.138010 -0.123020 -0.115683 0.057301 -0.385825 0.422018 -0.424400 -0.475278
many -0.501313 -0.018274 -0.170839 0.052318 0.366229 -0.160657 -0.983547 0.194259 0.149815 -1.066634 0.191103 0.043179 -0.487147 -0.339684 0.227049 0.376858 -0.105231 0.081999 0.134668 0.234067 0.845134 -0.335328 0.350852 0.626543 0.097151 -0.294713 -0.315375 0.097795 -0.340363 -0.036376 0.713204 -0.289265 0.330062 0.038461 0.230383 -0.231050 0.123715 -0.135816 0.156857 0.197584 -0.155316 0.317587 0.452661 0.083655 0.331963 0.049390 -0.159901 -0.721788 0.399065 -0.561231
may -0.520554 -0.327113 -0.493377 -0.262410 0.601727 -0.013727 -0.245507 -0.139955 0.455183 -0.703660 0.171524 0.182407 0.102560 -0.026503 0.486478 0.513645 0.143192 0.561600 -0.392266 0.219352 0.566015 -0.387368 -0.820089 -0.004319 -0.346936 0.150113 0.169350 -0.485419 0.100646 -0.418841 -0.122029 -0.091008 -0.542568 0.644797 0.584480 0.015717 -0.201246 -0.620336 -0.065077 -0.302875 -0.005291 -0.584716 0.017364 -0.544721 0.253627 -0.049918 0.133785 0.104799 0.745072 0.032220
meat 0.195131 -0.049398 -0.059028 -0.023266 0.158389 0.323032 -0.055920 -0.165263 0.222352 0.506515 -0.174407 0.208930 0.099700 -0.414256 -0.022606 0.227656 -0.161439 0.288421 -0.109428 0.281747 0.326756 -0.437963 -0.036916 0.530266 0.488388 -0.189380 -0.386035 -0.339474 0.308166 -0.403675 -0.408347 -0.036482 -0.444371 -0.029726 0.478076 -0.185925 -0.141173 0.261180 -0.173496 -0.260309 -0.697555 -0.290123 0.406552 0.790633 -0.186013 0.444696 -0.834673 0.120340 0.611674 0.138567
method 0.262184 -0.145211 0.945622 -0.186091 0.081990 0.191466 0.566883 -1.184937 -0.385749 0.546967 -0.154231 0.379174 -0.283487 -0.212847 -0.118817 -0.102244 -0.327058 0.482523 0.314111 -0.106433 -0.471215 0.043287 -0.354607 0.220462 -0.148481 0.306026 0.170872 0.691016 0.520834 -0.209145 -0.037668 0.041373 0.520991 -0.451525 0.192910 0.270414 -0.180924 -0.082598 -0.338860 0.071079 -0.188593 0.597793 0.043964 0.211474 0.677431 -0.037749 -0.522413 -0.223490 -0.119783 -0.468985
mexico 0.082643 0.238471 -0.576702 0.529550 0.800995 0.121068 -0.255199 0.251089 -0.709214 0.030705 0.192343 0.199796 -0.275051 0.105674 0.010242 0.165160 0.100398 0.259537 0.235167 0.067957 -0.089088 -0.108744 -0.060669 -0.395317 -0.489446 0.667542 -0.372421 -0.311213 0.178272 -0.568213 0.698102 0.272287 0.192383 0.455983 0.636810 -0.411436 0.200163 -0.224652 0.456497 -0.147539 0.115386 -0.337676 -0.078935 0.159671 0.554689 0.140245 0.278612 0.158936 -0.327593 0.093930
milk 0.099772 0.219741 0.139116 0.130692 -0.189381 0.253979 -0.079396 0.316203 -0.164238 0.347218 -0.169772 0.381935 0.129510 -0.206689 -0.013244 0.041041 -0.112580 0.260104 -0.210236 0.479805 0.244921 -0.470969 0.134768 0.351947 0.147714 -0.275153 -0.135382 -0.286390 0.166558 -0.430541 -0.290152 -0.127753 -0.177676 -0.132564 0.588790 -0.046694 -0.365246 0.465101 0.003156 -0.177448 -0.633116 -0.110484 0.353615 0.967548 -0.348520 0.428607 -0.471441 0.148800 0.639190 -0.001547
model 0.150996 -0.149396 0.931666 -0.080498 0.071128 0.399923 0.412782 -0.802502 -0.396495 0.243388 0.274557 0.283414 -0.231439 -0.114953 -0.146536 0.214628 -0.444295 0.229960 0.449616 -0.047883 -0.425223 0.154238 0.043948 0.638558 -0.144096 -0.202304 -0.085736 0.374737 0.434522 -0.329977 -0.199723 -0.245279 0.416750 -0.331611 0.196839 0.344685 -0.136869 0.121319 -0.345547 -0.139685 -0.235850 0.648478 -0.333290 0.072814 0.725680 0.071282 -0.376015 -0.056307 -0.174362 -0.274214
monarch 0.424234 -0.107439 -0.355735 -0.168709 0.121252 -0.645560 0.175017 -0.211735 -0.225076 -0.213476 -0.064302 0.273648 -0.042234 0.552196 0.103719 -0.172875 0.362256 -0.382567 -0.356391 -0.058748 0.333108 0.185909 -0.028121 -0.147254 -0.079504 0.016481 0.494573 -0.285262 0.232946 -0.475151 -0.161967 -0.224588 0.066129 0.813119 0.017087 0.380822 0.054329 -0.131772 -0.288666 -0.012639 0.119329 0.327108 0.080767 -0.163868 0.833963 -0.403730 -0.102621 -0.357495 -0.046773 0.477103
more -0.008295 0.019232 -0.563113 -0.280893 0.202960 -0.257508 0.295712 0.044206 0.173115 0.038911 0.543356 0.325494 -0.076377 0.176420 0.166421 -0.064156 -0.558361 0.062724 0.873583 -0.127888 -0.032837 0.230014 0.108237 -0.146725 -0.944660 0.320236 0.234988 -0.291455 -0.421888 -0.309657 0.305573 -0.191930 0.313619 -0.902937 0.383809 -0.059320 -0.117657 -0.613860 0.399378 0.344707 -0.504104 0.075292 0.288641 -0.185318 0.689852 0.758304 0.075004 0.532177 0.349899 0.139392
moscow 0.316807 -0.236000 -0.401853 -0.730079 -0.068942 -0.401551 -0.282710 0.418098 0.006319 -0.348563 0.202485 -0.378789 0.288538 0.155406 -0.070257 0.689064 -0.059014 0.323400 -0.113668 -0.815355 -0.306912 0.262515 -0.023101 0.300741 -0.290456 -0.374855 0.127892 0.457102 -0.130709 0.424951 -0.183384 -0.045626 -0.379625 -0.509023 0.029776 0.085622 -0.609442 -0.215295 -0.134900 0.584883 -0.147019 -0.254302 0.539970 -0.205474 0.558552 0.285687 -0.220166 0.035515 -0.293039 -0.485187
mother 0.066114 -0.079996 0.257430 0.125944 0.565650 -0.272330 0.071467 -0.085055 -0.355148 0.494414 0.037759 0.057959 0.626358 -0.379321 -0.455106 -0.115184 -0.021479 -0.093656 -0.539191 -0.534945 -0.092803 0.161347 -0.117675 0.621826 -0.381116 -0.070290 -0.399537 -0.408999 0.384762 -0.027660 -0.034330 0.479234 0.263974 -0.121640 0.347983 0.075680 -0.154354 -0.154006 0.156485 0.174621 0.066144 0.518560 0.476669 -0.022673 -0.324577 0.162845 -0.646977 0.222375 -0.387475 -0.417722
mountain 0.642070 -0.009751 0.123681 -0.050574 -0.488989 0.603223 -0.064152 0.115597 -0.000821 -0.030539 -0.375293 -0.168436 0.297807 0.009680 -0.492964 0.747799 0.133159 0.129178 -0.007209 -0.186305 0.742469 0.468149 0.057830 0.261765 0.184219 -0.028399 -0.146588 -0.364441 0.137498 0.129190 0.253986 -0.511225 0.278796 -0.319820 -0.343049 -0.240425 -0.109289 -0.213406 -0.002165 0.071016 -0.139309 0.325078 -0.220119 0.289138 0.075077 -0.270221 -0.461727 0.059076 0.128999 -0.248691
much -0.298486 -0.105238 0.451667 0.314998 -0.417274 -0.011818 0.535270 -0.399484 0.230535 0.021966 0.550882 0.874103 0.305391 -0.324626 -0.779068 -0.593849 0.500402 0.181548 0.326454 0.514624 -0.033261 0.362967 0.521650 -0.014411 -0.116388 -0.383017 0.152008 0.565984 -0.313301 0.230297 0.108980 0.547620 0.195669 -0.128743 0.073701 0.984756 0.931075 0.417751 0.376931 0.384885 1.250717 -0.220609 -0.982665 0.009147 -0.060667 0.433161 0.172772 -0.252175 0.607896 -0.223175
my -0.200598 -0.017339 0.456075 0.329787 -0.239772 0.329277 -0.577975 -0.229100 0.661448 0.699355 0.623801 0.151742 -0.141912 -0.374230 0.079064 0.139794 0.570470 -0.136307 -0.196536 0.426114 0.593509 -0.460877 0.440093 0.728982 -0.633137 -0.102387 0.360963 -0.008283 -0.041153 0.227584 0.297730 0.375787 0.261432 0.229757 -0.150009 0.215998 0.324441 0.200593 0.374726 0.638225 0.091328 0.299295 -0.137068 0.505525 0.167592 -0.640347 0.012113 0.556318 -0.150397 0.394506
never 0.587961 0.089354 -0.350237 0.022958 -0.052857 0.667949 -0.150417 0.013186 0.105381 0.147385 0.530224 0.330746 0.355965 -0.007527 1.064898 0.282724 0.124368 0.009017 -0.502337 -0.335028 -0.369570 0.157101 0.038701 0.647496 -0.003315 0.457610 0.478960 -0.311753 0.436402 -0.225000 -0.225985 -0.619135 -0.335713 0.073969 0.416474 0.330659 0.376397 0.533299 0.411140 0.342983 -0.097850 0.343384 -0.209311 0.396943 -0.089501 -0.100643 -0.343629 0.154197 0.879273 -0.201983
new -0.754858 -0.497647 0.144137 -0.649813 -0.694173 -0.618540 0.327642 -0.284414 -0.330422 -0.150648 0.008382 -0.512078 -0.579962 -0.079105 -0.083292 0.639557 0.098197 0.096931 0.079140 -0.314709 0.159361 -0.037362 0.348037 -0.570981 -0.064500 0.030289 -0.785573 0.224302 -0.446873 -0.040764 -0.188764 0.273641 0.061873 0.243906 -0.086701 0.133652 0.470332 0.788597 -0.886426 -0.333791 0.192685 0.580069 -0.106279 1.086393 -0.425986 0.505716 -0.369496 -0.062582 0.578501 -0.124638
next -0.044650 -0.276621 0.123453 0.235327 0.567694 0.688317 -0.281519 0.188682 0.131916 0.061876 -0.040251 0.214430 -0.153692 -0.715213 0.485592 -0.163670 0.153487 -0.638583 -0.662600 0.788841 -0.479356 0.029826 0.604933 0.344885 0.201051 0.184217 0.336167 -0.139185 0.168441 0.421510 -0.361680 -0.811959 -0.204492 -0.216738 -0.273164 0.316248 0.511809 0.455481 0.248764 0.519397 -0.620858 0.044337 0.321223 0.428897 0.104658 -0.595812 -0.527610 0.867767 -0.129918 -0.284935
night -0.337102 0.309479 0.372245 0.549758 0.132159 -0.055320 -0.492975 0.283224 -0.327752 0.737989 0.065408 -0.120452 -0.019756 -0.380091 -0.059611 -0.664532 0.207770 -0.644509 -0.520079 0.191514 0.095416 -0.771518 -0.398549 -0.447380 0.273428 0.515650 -0.196883 -0.761091 0.149879 0.156172 -0.651700 -0.201922 -0.148005 -0.148617 -0.237074 0.239239 -0.492013 0.303813 0.021812 -0.518759 -0.520633 0.754137 0.736724 -0.321567 -0.577687 0.610347 -0.596343 0.119539 -0.807775 -0.171139
no 0.555592 0.069811 -0.464009 -0.152893 0.072459 0.081726 -0.216167 -0.036684 0.321052 0.717607 -0.250120 -0.048912 -0.357667 0.197973 -0.053032 -0.132270 0.026075 -0.211634 0.159545 -0.428731 0.495917 0.037133 -0.305085 -0.275416 0.074912 -0.316422 0.203237 0.445736 0.358544 0.646258 0.254408 0.391887 -0.076253 -0.066418 0.103202 0.159595 -0.201955 -0.302923 1.248055 0.382009 0.220560 0.550916 0.660350 0.267506 0.239227 0.331747 0.829830 0.594276 0.617223 0.362568
not 0.429406 -0.538776 -0.312877 -0.103209 -0.183554 -0.339744 0.476501 0.633933 -0.487902 0.359841 -0.165929 0.507603 0.056045 0.044160 0.266778 0.303003 -0.391919 -0.398687 0.033222 0.154969 0.418021 0.020706 -0.101989 0.523775 0.455553 -0.228351 -0.665278 0.168312 0.519856 0.111118 0.011144 -0.736049 -0.372736 -0.135412 0.016581 -0.061574 0.624229 -0.553224 0.110806 1.020372 0.525793 0.326235 0.344679 0.293990 0.236641 0.128305 -0.389780 0.330441 0.058467 0.634857
number 0.273830 0.579127 0.281343 0.816422 0.230660 -0.861370 0.941934 -0.425475 0.491056 -0.008822 0.741920 -0.076410 -0.141491 0.409131 -0.033467 -0.316126 -0.426737 0.048454 0.198430 0.004191 -0.093958 -0.033342 0.458199 0.511132 -0.069717 0.244851 -0.193957 -1.262927 -0.216490 -0.080866 0.282757 -0.635643 -0.524728 0.260097 0.006055 0.213166 0.477416 0.543902 0.266680 -0.254945 -0.183024 0.310883 0.803667 -0.086350 0.511139 -0.211291 -0.027322 -0.383320 -0.127781 -0.268692
of 0.063844 0.289651 0.539226 -0.457316 -0.295589 -0.360031 -0.482026 0.088043 0.253470 0.507248 -0.267898 -0.174932 -0.246035 0.085276 0.613949 -0.114982 0.037207 0.369042 -0.662488 -0.575385 0.194664 -0.176013 -0.274988 -0.016305 0.238952 0.107396 -0.611107 0.332683 0.733022 0.554019 -0.036496 -0.092103 0.237658 0.799050 0.583081 0.497062 0.417671 0.379459 0.479390 0.196036 -0.140260 0.505854 0.348759 -0.668745 -0.330733 -0.726909 0.489131 0.283370 -0.045300 -0.737285
oil -0.786339 -0.550003 -0.234169 -0.074981 0.208950 0.001641 -0.008066 0.144924 -0.083880 -0.096906 0.222887 0.245214 0.312742 -0.858072 -0.016238 0.523898 -0.196503 0.011727 0.129374 -0.006055 0.252788 0.297670 0.307242 1.341335 0.215053 -0.784156 -0.524885 0.732040 -0.711230 -0.441726 0.179749 0.503593 0.393917 -0.126847 0.047338 0.132724 0.565215 0.361643 -0.781964 -0.221415 -0.269182 -0.079095 -0.881466 -0.438865 -0.677176 0.119187 -0.739764 0.544880 0.698154 -0.809433
old -0.261851 1.303978 0.435997 -0.162133 0.437997 -0.774011 -0.263543 0.039022 -0.691137 0.011703 0.214949 0.258913 -0.436538 -0.065119 -0.172394 -0.712957 -0.618955 -0.172205 -0.363781 0.795813 0.094513 -0.158804 -0.153117 -0.007311 0.295587 0.120118 -0.333843 0.529020 0.319686 -0.365297 0.056236 0.493192 0.192697 0.412824 0.164414 -0.383847 0.017297 -0.363676 0.474754 0.025477 0.021188 0.529513 0.296218 0.484444 -0.049862 0.545087 0.363477 0.366044 0.014462 0.026061
on 0.668567 -0.148636 -0.046917 -0.584151 0.681986 0.517883 -0.402943 0.403161 -0.476102 0.250786 -0.039402 -0.050609 0.249315 0.096976 -0.175344 -0.635970 -0.065965 0.063569 -0.354250 -0.615078 0.136427 -0.177026 0.238753 0.071972 0.377567 -0.052465 -0.010270 0.396116 0.042049 0.252190 0.138698 0.059570 -0.538253 -0.306261 0.567830 -0.209254 -0.034747 -0.414738 -0.537724 0.475694 0.117364 -0.199006 -0.352516 -0.186341 -0.161960 -0.127324 0.132255 -0.278664 0.004170 0.075297
one 0.459480 -0.465949 -0.392188 0.778772 -0.000784 -0.127387 0.159802 -0.102753 -0.075642 0.243294 0.229147 -0.126454 0.188693 -0.508541 -0.154741 0.152912 0.102241 0.394926 -0.115853 0.453649 -0.006823 0.281016 0.141023 -0.301050 0.548490 -0.131804 0.088895 0.038799 -0.896422 0.099294 0.470006 0.230441 -0.642692 0.343488 -0.172065 0.550994 -0.274053 -0.087171 -0.017029 0.556846 -0.169852 0.497135 0.092562 -0.002437 0.647964 0.093083 0.374606 -0.112300 0.085409 -0.054335
only 0.405258 -0.242527 0.101065 -0.233221 0.070065 -0.077869 -0.035414 -0.192439 -0.337212 -0.218681 -0.603933 0.439998 0.888035 -0.575405 0.026338 0.442055 -0.371583 0.424642 -0.357099 -0.787679 0.277994 0.690361 -0.632331 -0.409766 0.219912 -0.197759 -0.286405 -0.077293 0.205097 0.255757 0.249978 -0.237731 1.281738 -0.226641 -0.114505 0.547856 0.422471 -0.178631 0.613211 -0.115320 -0.222247 0.292245 -0.725867 0.054734 0.427662 -0.122068 0.262968 0.602461 0.332978 -0.601887
open 1.088949 -0.529362 -0.453584 -0.186609 -0.508119 0.025009 0.249843 0.332383 0.478713 0.088041 0.575337 0.212439 -0.257321 0.208354 -0.150211 0.042010 0.304513 -0.366032 -0.037909 0.018364 0.467345 -0.022481 -0.090945 -0.623503 -0.330585 -0.193046 0.147556 0.442379 0.341749 0.121620 -0.808107 0.177448 -0.501616 0.062903 0.393451 -0.840591 -0.045939 -0.584395 -0.026965 -0.512581 0.115848 -0.590396 -0.119745 0.552240 0.018107 -0.323617 -0.260494 -0.262964 0.291490 -0.470237
or -0.109645 -0.677477 -0.043677 0.291123 -0.589442 -0.220738 -0.315571 -0.256917 0.246297 0.091001 0.624039 -0.335609 0.014584 0.206798 0.070657 -0.189630 -0.094953 0.098012 0.945634 -0.473793 -0.161104 0.166264 0.406820 -0.034663 -0.530562 0.204369 -0.037063 -0.092316 0.224877 0.336185 0.324320 0.015838 0.042624 -0.179520 -0.011892 -0.155334 0.095867 0.633646 -0.703274 -0.081431 -0.265898 0.126919 -0.278145 0.149164 -0.238182 0.510116 -0.037327 0.104211 -0.396288 -0.139103
orange 0.329844 -0.146393 0.032883 0.376412 0.197345 0.501516 0.284969 0.258847 -0.366518 0.122487 -0.102283 0.060631 -0.037663 -0.292687 -0.176887 0.009447 -0.230181 0.155913 -0.122730 0.325489 0.431486 -0.529340 0.000673 0.268582 0.115682 0.051922 -0.369639 -0.112690 0.292742 -0.288380 -0.407708 -0.001816 -0.215444 -0.183700 0.656775 0.000764 -0.155504 0.481104 0.059966 -0.397219 -0.482089 -0.272928 0.348852 0.795873 -0.283127 0.639447 -0.444265 0.261684 0.576352 -0.096384
order 1.051748 -0.163652 -0.392758 0.403955 -0.521923 -0.452919 0.501192 0.207634 -0.054490 0.063723 0.933687 0.149745 -0.270602 0.143928 0.470091 -0.591612 0.413143 0.531146 -0.404300 -0.462737 0.586057 -0.287836 0.440801 -0.191626 0.484497 0.457162 -0.043014 -0.022754 0.291324 0.049438 -0.612942 0.412306 0.579274 0.114498 0.161254 1.078470 0.519633 0.332397 -0.651438 -0.452633 -0.287120 -0.341563 0.192331 0.566689 -0.242613 0.165738 -0.072093 0.474130 -0.016011 -0.002895
other 0.050415 0.160237 0.085304 -0.311314 -0.137333 0.335552 -0.043189 -0.041941 0.797453 0.227110 0.157040 -0.916936 -0.383973 0.204990 -0.359097 -0.009514 -0.638505 0.153459 -0.003512 0.350465 0.503526 -0.457424 0.720335 -0.566737 1.148168 0.673323 -0.048089 0.473353 -0.326294 0.158738 0.008153 0.314723 0.193751 -0.445437 -0.021535 -0.298000 -0.138782 0.032766 -0.236676 0.471670 -0.842414 0.726087 0.577872 -0.349936 -0.078177 -0.303220 -0.434016 0.118462 -0.298354 0.180721
out 0.139412 -0.374408 -0.109404 -0.552060 0.275633 -0.049839 -0.569777 0.326197 -0.030791 0.234323 0.359805 0.036132 -0.554925 -0.173724 -0.125108 0.455954 0.241389 0.560783 -0.400263 0.374825 0.376663 0.125307 0.524535 0.038344 -0.180416 -0.125140 0.303428 0.447046 -0.647218 0.051399 -0.115036 -0.006297 0.504728 0.632910 -0.072013 0.005707 0.173585 -0.080205 -0.219547 0.305508 0.079869 0.043401 -0.047578 -1.107263 0.250049 0.061392 0.102625 -0.557376 0.366321 -0.028800
over 0.016910 0.244735 0.553622 -0.355440 0.682386 0.151302 0.488800 0.381001 -0.355336 0.246892 0.244026 -0.844621 -0.520911 -0.103949 0.276419 -0.282614 0.820201 -0.066057 0.082402 -0.261426 -0.460424 -0.001992 -0.035104 -0.161610 -0.483947 0.060015 0.542253 0.097018 0.332059 -0.947834 -0.422098 0.361051 -0.527582 -0.249706 -0.607962 -0.372829 -0.303013 0.031320 -0.482590 1.005621 -0.496215 0.282500 -0.106560 -0.058939 0.029687 0.132276 -0.088503 -0.245686 -0.133555 -0.280091
palace 0.275123 0.063483 -0.325092 0.118086 0.098189 -0.376599 0.327073 -0.357338 -0.545149 0.170886 0.009062 0.365304 -0.096639 0.368617 -0.037301 -0.028652 0.518887 -0.232008 0.009559 -0.148729 0.148195 -0.128513 0.238210 -0.086187 -0.163637 0.225992 0.462455 -0.162492 -0.500770 -0.502692 -0.142987 -0.042354 0.060621 0.808899 0.088173 0.735751 0.017723 -0.413150 0.158179 -0.220753 0.220180 -0.038223 0.072085 -0.064705 0.693781 -0.277436 -0.331089 -0.472046 -0.224143 0.075988
paris 0.289517 -0.070590 -0.436686 -0.781089 -0.072903 -0.243244 -0.187856 0.249552 -0.072748 -0.184216 0.396909 -0.068417 0.558991 -0.168876 0.177082 0.727009 -0.096208 0.425207 -0.042406 -0.416127 -0.147611 0.091490 -0.190953 -0.007833 -0.415513 -0.394307 0.429964 0.030172 -0.125726 0.064841 -0.379419 0.297043 -0.122501 -0.435479 -0.151111 -0.236537 -0.403430 -0.054234 -0.144128 0.221119 0.176235 0.014677 0.611241 -0.374140 0.341208 0.102550 -0.055897 -0.027986 -0.167429 -0.239345
part -0.112630 0.233539 -0.277084 0.831683 -0.156574 -0.480477 -0.384615 0.091016 -0.611036 -0.056755 -0.172907 0.766930 -0.074439 -0.100880 0.264539 0.117250 -0.579430 -0.463508 0.684834 -0.042997 -0.544845 0.013838 -0.664547 0.435655 0.413020 -0.158261 0.229994 -0.226107 -0.157309 0.559179 0.353764 -0.287603 -0.130990 -0.576297 -0.305273 -0.437220 0.404042 0.302077 -0.125905 -0.686569 -0.505208 0.414918 0.027383 -0.315200 0.395148 -0.265004 0.173722 -0.227988 -0.241121 0.160273
people 0.311176 -0.254800 0.313354 -0.535018 0.308677 -0.240279 0.194963 -0.297892 0.000670 -0.082707 -0.697287 0.083679 0.452306 0.221420 -0.235723 -0.580485 0.703566 -0.212159 -0.227546 0.448894 0.074362 -0.142857 -0.860430 0.664010 -0.264931 -0.703445 0.471822 -0.374089 0.312779 -0.469904 -0.632452 -0.686718 0.165894 -0.332382 0.350361 0.569740 -0.356841 0.156969 0.064437 -0.017303 0.574697 0.229348 -0.284006 -0.020518 -0.055414 -0.202961 0.658010 -0.403870 -0.573241 -0.312672
place 0.315435 -0.421240 0.179026 0.164829 0.177964 -0.302985 0.430278 -0.683700 -0.050428 0.593533 -0.490276 -0.948873 -0.475186 -0.621171 0.093148 0.280854 0.024605 -0.348008 0.212058 -0.085952 -0.250879 0.655150 0.221062 0.305734 -0.746143 -0.136933 0.184235 0.308958 -0.003313 -0.417958 0.680497 0.252487 -0.276639 -0.340099 -0.491064 -0.033791 -0.041410 -0.180746 -0.669148 -0.227165 0.168389 -0.397392 -0.190353 0.112378 -0.137963 0.453903 -0.407801 0.330762 1.044484 0.264772
pollution -0.016834 0.320063 -0.864227 -0.011106 0.205187 -0.071398 0.110395 0.344200 0.117485 -0.176726 -0.118273 0.080850 0.572228 0.107541 -0.247659 -0.010396 -0.332441 0.670105 -0.393814 0.278216 0.482895 0.012520 0.263225 -0.200072 -0.279138 -0.058999 -0.311416 -0.030963 0.059662 -0.447932 0.495342 -0.542392 0.123150 -0.621926 0.260260 -0.468877 -0.096044 -0.148668 0.113929 0.245349 -0.328885 -0.096447 0.221094 0.171474 -0.371469 0.693535 0.111499 -0.498495 0.106172 0.068196
prince 0.215546 0.002405 0.099801 0.307754 0.452140 -0.505641 0.454963 -0.188578 -0.587947 0.457108 0.016904 0.317921 -0.080319 0.739089 -0.071797 -0.035183 0.410860 -0.346536 -0.029257 -0.208231 0.254965 0.017177 0.220180 -0.119413 -0.302808 0.077940 0.489206 -0.200325 -0.077739 -0.704778 -0.074253 -0.279320 -0.155135 0.441095 0.427685 0.463676 -0.116355 -0.025645 -0.188103 0.142261 -0.063607 0.056195 0.020598 -0.288329 0.605203 -0.489858 -0.402813 -0.654603 -0.196818 -0.088130
princess 0.323545 0.230005 -0.055306 -0.209205 0.314055 -0.522151 0.276558 -0.001173 -0.690353 0.271711 -0.199606 0.156728 -0.039197 0.674746 -0.122948 -0.307884 0.600116 -0.232444 0.009936 -0.085086 0.375182 0.018890 0.018161 -0.234045 -0.275921 0.103665 0.438872 -0.378945 -0.182312 -0.437245 -0.103274 -0.232328 0.135954 0.416079 0.064319 0.301734 -0.007684 -0.055290 -0.174798 0.018522 0.182633 0.253701 0.158722 -0.024116 0.496933 -0.389319 0.009293 -0.613728 0.076703 0.175243
queen 0.246603 -0.161344 -0.333274 0.043247 0.556792 -0.292989 0.218202 -0.013042 -0.550550 0.265024 -0.389752 0.091617 -0.244528 0.989540 -0.096211 0.143203 0.363910 -0.852035 -0.394869 0.369229 0.301654 -0.061271 0.055543 -0.036522 -0.263918 0.194073 0.321044 -0.370157 -0.128738 -0.269810 -0.213783 -0.107067 0.367382 0.238628 0.195581 0.571666 0.014186 -0.428976 -0.390373 -0.222052 -0.266220 0.223150 0.094732 -0.039787 0.479561 -0.367327 -0.059055 -0.620425 0.077597 0.141500
rabbit -0.232704 0.194794 0.377348 -0.265858 0.193446 -0.471769 -0.235744 0.129213 -0.370845 0.142531 -0.028112 0.208442 0.279100 -0.446715 0.178234 -0.074548 0.341753 0.454421 -0.272278 -0.387359 -0.211948 0.499794 -0.178710 0.226296 -0.442215 -0.051402 -0.756695 0.318445 -0.597975 -0.481074 0.243749 0.087826 -0.007907 -0.359944 -0.126649 0.043155 -0.075425 0.177307 0.357727 0.421936 -0.180248 0.377845 0.093004 0.108190 0.078420 0.033732 0.261563 0.209825 0.352746 0.419249
real -0.220164 0.284206 0.354045 -0.118246 -0.503132 -0.064499 -0.328693 0.854128 0.006632 -0.540516 -0.218290 -0.862709 0.048047 -0.586067 -0.133834 -0.610795 -0.070106 -0.015057 0.236127 -0.102556 -0.733111 -0.172908 0.335731 0.201360 0.689392 -0.082361 0.535362 0.334282 -0.059990 0.370569 -0.619336 -0.442788 0.161494 0.139096 -0.385311 0.538949 0.009048 0.663303 -0.273996 -0.351966 -0.447826 0.254213 0.650187 0.561761 0.077736 0.334587 0.492694 0.226877 0.158833 0.088047
renewable -0.331747 0.266442 -0.599770 -0.011021 -0.077541 0.096875 -0.312026 0.383021 0.127019 -0.097823 -0.107873 0.178082 0.693973 0.228192 0.064908 0.040656 0.105735 0.501574 -0.328922 0.355631 0.279437 0.002635 0.167638 -0.210384 -0.320906 -0.039361 -0.552687 0.427767 -0.217967 -0.245403 0.038036 -0.224724 0.189972 -0.804921 0.042199 -0.358413 0.284805 -0.022262 0.112244 0.029384 -0.517879 -0.145682 0.374954 0.134298 -0.221791 0.197761 -0.396509 -0.645054 0.196106 -0.132238
research -0.231589 -0.043665 0.866846 -0.139079 0.110657 0.248058 0.571321 -1.024311 -0.376695 0.176161 -0.242774 0.169746 -0.165089 -0.061245 -0.116195 -0.102325 -0.242072 0.531409 0.270752 0.045386 -0.553218 -0.063371 0.133967 0.169112 -0.145709 0.173377 0.134122 0.234821 0.359888 -0.339378 -0.104943 -0.373265 0.266271 -0.501327 -0.303735 0.182808 -0.159014 0.037177 0.063616 -0.222365 -0.044383 0.615389 -0.016953 -0.070284 0.374464 0.250527 -0.521426 0.047924 -0.097157 -0.345250
result 0.006653 0.122471 0.771705 -0.117130 0.373210 0.066058 0.343524 -0.816674 -0.163404 0.647508 0.173418 0.172905 -0.028342 0.036411 -0.194342 -0.115355 -0.348929 0.066119 0.272792 -0.073258 -0.665104 0.129410 -0.087907 0.081401 -0.296673 0.143773 -0.032126 0.553582 0.736783 -0.194182 -0.146179 -0.117959 0.717143 -0.601045 -0.061290 0.240768 -0.021267 0.091470 -0.053616 -0.185099 -0.349708 0.560126 0.035532 0.090412 0.460963 0.211253 -0.363351 0.167221 -0.137235 -0.100739
rice 0.256662 -0.058500 -0.186269 -0.040424 0.181453 0.248439 0.116649 0.289541 -0.230650 0.272865 -0.296695 0.029986 0.108441 -0.367233 0.064676 -0.220139 -0.489965 0.115154 0.025149 0.411987 0.366173 -0.538539 -0.010755 0.366549 0.135370 0.053138 -0.000948 -0.175397 0.314637 -0.288159 -0.460428 0.206352 -0.075187 -0.328249 0.677474 -0.176044 -0.113195 0.538157 -0.373711 -0.430509 -0.662395 -0.473094 0.549629 0.835015 -0.389571 0.727369 -0.489009 0.159630 0.744386 0.251547
river 0.958862 -0.069552 0.436461 0.027363 -0.449722 0.824590 -0.094314 0.322519 -0.124001 -0.226733 -0.264615 0.040167 0.337801 0.084832 -0.273241 0.521729 0.088042 0.137702 0.022521 -0.386823 0.534896 0.426109 0.165005 0.186566 0.146585 0.236392 -0.059890 -0.181763 0.075581 -0.211457 0.358811 -0.656813 0.048017 -0.376912 -0.790656 0.063338 0.157972 -0.235123 -0.179234 0.182323 -0.340412 0.169821 -0.049694 0.191846 0.262972 -0.183438 -0.483899 0.303367 -0.174475 -0.031171
rome 0.140540 -0.224152 -0.483185 -0.654811 0.216452 -0.422294 -0.337275 0.124563 -0.159978 -0.391214 0.397317 -0.094711 0.407529 -0.251055 -0.112754 0.829630 -0.364444 0.336120 0.124030 -0.491420 -0.533277 0.221118 -0.022742 -0.111669 -0.177456 -0.239882 0.298418 0.370349 -0.033448 0.457424 -0.500769 0.243220 -0.395934 -0.538758 -0.227710 -0.370871 -0.259764 0.109164 -0.286795 0.250058 0.139240 -0.029517 0.458993 -0.450295 0.193534 0.206486 -0.060417 0.024708 -0.704903 -0.710406
room 0.259991 -0.477604 0.231188 -0.027051 0.161722 -0.025791 -0.117131 0.102569 -0.068166 0.159562 0.215986 -0.608607 0.747398 0.062949 -0.078473 -0.139372 0.358567 -0.016374 0.479694 0.248673 0.285022 0.025756 0.566230 -1.392400 0.883816 -0.304655 -0.322659 -0.128951 -0.496150 -0.070636 -0.122321 0.448418 -0.014205 0.316289 -0.194173 -0.032522 -0.024807 -0.402720 -0.461856 -0.716148 0.311186 -0.104046 0.024018 -0.380856 -0.122173 0.267167 -0.153477 -0.433841 -0.032923 -0.268224
royal 0.397516 0.164155 -0.204971 0.019010 0.555121 -0.563070 0.203829 -0.111574 -0.788375 0.194396 0.255717 0.166551 0.001729 0.520760 -0.122236 -0.131792 0.356368 -0.498831 0.015229 -0.253675 0.324790 -0.203816 0.295516 -0.203952 -0.262878 0.327930 0.248384 -0.228993 -0.215549 -0.592202 -0.106799 -0.097657 0.176078 0.443058 0.252960 0.505578 -0.334323 -0.082340 -0.106614 0.148369 -0.116710 0.126701 0.200469 -0.019848 0.506569 -0.499546 -0.130862 -0.458494 0.156209 0.121508
russia -0.265226 0.135283 -0.645214 0.226790 0.577226 0.313262 -0.509651 0.376540 -0.384944 -0.290045 0.030872 0.196798 -0.185166 -0.413959 -0.266140 0.170058 0.127637 0.155868 0.346292 0.150984 -0.139981 0.283101 -0.171062 -0.831833 -0.579515 0.472766 -0.158845 -0.419077 0.307291 -0.473091 0.595227 0.241590 0.301044 0.027680 0.344653 -0.578918 0.231652 0.238506 0.309205 -0.151340 0.242780 -0.050331 -0.067612 0.481184 0.550038 0.460390 0.270397 0.201762 -0.100493 0.206337
said -0.789942 0.084795 0.447770 0.914670 -0.257317 -0.689543 0.248161 -0.759357 -0.438663 -0.123965 0.302841 -0.199392 -0.025899 0.166615 -0.961898 -0.650375 0.602283 0.676293 -0.560322 -0.199372 0.120995 0.331030 0.177751 -0.442601 -0.514182 -0.012287 0.771086 0.406946 0.248102 -0.587018 0.218659 -0.013602 -0.403675 0.219457 -0.409165 -0.076048 0.478192 -0.066218 -0.194315 -0.504047 0.083834 -0.829946 0.255847 0.658772 -0.315998 0.411952 -0.202910 0.187104 -0.047042 0.006073
school 0.266453 -0.409941 -0.160184 -0.270457 -0.111683 -0.370903 -0.177098 -0.309314 -0.062237 -0.671795 0.117748 -0.035943 -0.610065 0.853260 0.491533 -0.411356 0.573063 0.540084 -0.579241 0.500520 0.399781 -0.659039 -0.193901 0.479655 0.022422 0.031004 -0.240778 -0.038914 -0.078139 0.539103 0.024341 0.324665 0.048449 0.186457 -0.337816 -0.697483 0.246415 0.541475 -0.153354 0.646420 -0.187180 -0.681126 0.016803 0.688611 0.362747 0.380207 -0.227147 0.005255 0.629330 -0.019159
sea 0.794462 -0.103144 0.184921 0.343919 -0.619285 0.723030 -0.030085 0.176619 0.056356 -0.192489 -0.277459 0.106132 0.595815 0.017309 -0.308602 0.471546 0.464790 -0.097697 0.023872 -0.187476 0.432967 0.428802 0.248999 0.324504 -0.424691 0.371209 -0.122917 -0.244857 0.205373 -0.361987 0.394652 -0.585370 0.055442 -0.601262 -0.447736 0.017379 -0.397915 -0.078353 0.002797 0.034299 -0.360640 0.148244 -0.201119 -0.039766 -0.175876 0.154365 -0.930196 0.145090 0.058449 -0.252404
see -0.299648 -0.047061 0.619045 0.118752 -0.204541 -0.024389 0.637228 0.065168 -0.094144 0.002099 0.677724 0.229833 0.735492 -0.083309 -0.341510 -0.032395 0.027247 -0.039902 0.035082 0.378873 -0.775294 0.040823 0.522644 0.564839 -0.000961 -0.118486 -0.197407 0.737517 0.616832 -0.036426 -0.070321 0.373027 0.409466 -0.368249 0.043499 0.060191 0.121997 -0.450140 -0.069944 0.394054 0.587529 0.133898 0.582185 0.693465 -0.315325 0.634746 0.274191 -0.215006 -0.169886 -0.098829
seem 0.210412 -0.646569 -0.235141 -0.225731 0.185478 0.520803 -0.260540 -0.566491 -0.534692 0.337305 -0.056045 0.201015 0.113920 -0.229459 0.337997 0.340408 -0.611607 -0.460670 0.307332 -0.062392 -0.047084 0.062023 0.188797 0.631886 0.079890 -0.045996 0.310502 0.048276 -0.392057 -0.216607 0.348883 0.455710 0.555108 0.028603 0.116548 -0.035144 0.168434 0.039778 0.508826 0.314732 0.343519 0.135433 -0.357889 0.325521 0.494627 0.102203 0.151607 -0.391025 -0.135401 0.004784
set 0.002555 0.238516 -0.480062 1.129354 0.181618 -0.918920 -0.201667 -0.034201 0.270352 -0.618487 -1.130289 -0.075671 -1.042081 -0.794095 0.381173 -0.255885 -0.041720 -0.215117 -0.605235 0.414237 -0.651588 0.401513 -0.554754 -0.367918 -0.111172 0.384018 -0.318962 -0.485530 0.116749 -0.234811 0.132627 -0.691518 -0.435879 -0.148056 -0.787443 -0.101206 0.066844 -0.083178 0.024416 0.286582 -0.443966 0.172415 0.184348 -0.630639 0.463302 -0.402079 -0.562229 -0.131793 1.022500 -0.494957
she -0.808975 0.034935 -0.324722 -0.559052 0.395610 0.200712 0.144626 -0.016815 -0.100128 -0.537051 0.523025 -0.132017 -0.019336 0.160264 -0.588211 0.061136 -0.288661 -0.744954 -0.196731 0.433661 0.012324 -0.129278 -0.556362 -0.754094 -0.248833 -0.019083 -0.240599 -0.447807 0.259199 -0.071516 0.945403 -0.535395 -0.796945 -0.611200 -0.569889 0.870859 -0.259430 -0.224103 -0.074053 0.087926 -0.311180 0.069511 0.339082 0.088190 -0.364955 0.223459 -0.124428 -0.072756 0.439017 0.372083
side 0.072872 -0.275877 0.147695 -0.110579 0.048262 -0.797759 -0.335177 -0.168030 -0.378398 0.833297 -0.770516 0.227974 0.325193 -0.231684 0.405437 0.129242 -0.193631 -0.188882 -0.094629 -0.156329 0.120361 -0.262130 0.643586 0.570274 -0.265892 0.425678 0.126147 -0.376517 0.324223 0.262611 0.545410 0.391808 0.039298 -0.051200 0.120144 0.226117 -0.649468 -0.440802 0.150065 0.352861 0.088003 0.028753 -0.145654 -0.272921 -0.009930 -0.249522 -0.211447 0.491639 0.233756 -0.064865
sister -0.227078 -0.033943 0.332868 0.149062 0.631945 0.014785 -0.049077 -0.258729 -0.333263 0.417981 0.335804 -0.287329 0.667630 -0.284434 -0.377461 -0.127765 0.110547 0.208670 -0.638932 -0.609435 -0.149528 -0.136814 -0.090906 0.335296 -0.671434 -0.266461 -0.156994 -0.298187 0.535272 -0.005547 0.029524 0.577492 0.260147 0.016087 0.122588 0.199828 0.050133 -0.127834 0.192605 0.145755 0.035090 0.380087 0.162799 -0.101741 0.107968 0.053434 -0.451125 0.060382 -0.494265 -0.342811
snake 0.159166 0.423935 0.323923 -0.371422 0.070234 -0.107445 -0.112430 0.079399 -0.238189 0.406467 0.001544 -0.125235 0.462201 0.043653 0.065341 -0.066358 0.429901 0.133369 -0.367393 -0.148811 -0.379857 0.831226 -0.378944 0.365717 -0.471174 -0.235314 -0.406132 0.623447 -0.341473 -0.168978 -0.170788 0.001469 0.211401 -0.488783 -0.086451 0.197182 -0.165127 0.306577 0.547767 0.252633 -0.016930 0.445814 -0.219549 0.391192 0.151711 0.230542 0.125422 0.161664 0.497175 -0.030128
so -0.415350 0.446870 -0.029864 0.057727 0.286426 0.003348 0.850679 -0.170637 -0.291935 -0.824276 -0.465164 -0.183100 -0.495905 -0.191534 -0.420575 0.155207 0.647174 -0.583773 0.556404 -0.599114 0.188692 -0.063079 0.376602 -0.084366 0.313398 -0.212491 0.149323 -0.288520 0.230464 -0.392809 0.232214 0.373993 -0.419425 -0.036625 -0.455562 0.151058 -0.305036 -0.057091 0.349998 -0.367283 0.501689 -0.697767 -0.613681 0.364749 -0.651306 -0.417712 0.107865 0.236538 0.238132 0.272858
solar -0.291884 0.301893 -0.809200 0.121127 -0.258989 -0.049439 -0.269225 0.069422 0.003043 -0.230318 0.040543 0.183186 0.511232 0.237169 -0.018970 -0.140219 -0.474128 0.606822 -0.131776 0.334156 0.310440 -0.246676 0.228299 -0.251308 -0.533691 0.066918 -0.546647 0.563091 0.307570 0.022084 0.643308 -0.050693 0.066121 -0.561354 0.182799 -0.813837 -0.038563 0.221675 -0.021545 0.287630 -0.597684 0.086306 0.216541 0.162024 -0.291743 0.411213 -0.172454 -0.627061 0.240616 -0.323580
some -0.090444 -0.169048 0.013075 0.066043 0.222920 -0.361716 0.178134 0.652754 0.336445 0.129089 0.137905 0.068192 -0.197609 -0.493691 0.007463 0.007762 0.093671 0.802194 0.039565 0.530214 0.539782 0.504213 0.130843 -0.649584 -0.329415 -0.321556 0.457089 0.743889 -0.783060 0.002259 0.488692 -0.167712 0.529298 0.064536 -0.596614 0.116749 0.739738 0.562383 0.261225 -0.428886 0.040618 0.075941 0.165350 0.261104 0.221901 0.459997 0.374814 0.279091 0.488000 0.081360
son 0.032636 -0.226010 0.387168 0.040502 0.672126 -0.401870 -0.192824 -0.436359 -0.325548 0.452841 0.235948 -0.294034 0.408754 -0.083632 -0.325790 -0.265488 0.038571 -0.042762 -0.062755 -0.472377 -0.228007 -0.435163 -0.299073 0.456195 -0.219583 -0.183339 -0.130024 -0.462453 0.472402 -0.099856 0.250467 0.301261 0.174402 -0.268988 0.286637 0.196471 -0.062458 -0.162798 0.179540 0.081193 -0.200192 0.413598 0.167569 0.029701 0.001070 0.012510 -0.476464 0.394951 -0.297946 -0.294801
start -0.348944 0.302456 0.261308 -0.195537 0.554090 0.327141 0.873605 -0.693756 0.257462 -0.141814 -0.585731 -0.521643 -0.344098 -0.125107 0.521019 -0.864847 -0.578708 0.135825 0.167502 -0.081313 -0.346970 0.456233 0.078219 0.505551 0.073656 -0.141524 0.035481 0.561224 -0.000952 0.285433 0.386705 -0.236487 -0.368791 -0.159154 0.714033 0.622958 -0.213757 0.209968 0.244106 0.272218 0.113576 0.025605 -0.402528 0.023173 -0.499417 -0.731619 -0.355856 0.603045 0.971762 -0.272307
state 0.382879 0.243142 -0.432470 -0.509467 0.354676 0.412119 0.100072 0.181393 0.056815 -0.117103 0.227995 -1.245360 -0.024851 0.233249 -0.119950 0.055555 0.173928 0.522567 -0.229176 -0.005010 -0.940683 0.098990 0.004268 -0.319806 0.261212 0.590723 -0.347422 -0.213713 0.573968 -0.150890 0.050984 -0.046767 0.178625 0.155007 -0.598142 0.125760 -0.243719 0.495161 -0.180266 -0.962214 -0.262520 0.099174 -0.144234 -0.797288 0.459934 -0.004405 -0.324337 0.543366 -0.440632 -0.020473
still -0.201783 -0.030229 -0.051964 -0.504088 -0.332482 0.339980 -0.048341 0.074153 0.250169 0.027050 0.131826 -0.422429 -0.042532 0.537287 -0.214885 -0.651962 -0.207118 0.358678 0.353928 0.252323 -0.650279 -0.271860 -0.387638 -0.185409 0.619646 -0.034858 -0.186436 -0.200903 0.494748 0.484484 0.863704 0.204074 -0.077273 -0.516264 -0.505250 0.262291 -0.348580 0.667663 0.041367 0.039423 0.583574 -0.206215 0.841578 0.062859 0.216837 0.009788 0.378917 0.120844 0.087228 0.821875
